{"layers":[{"__type":"InputLayer:#ConvNetSharp.Layers","DropProb":null,"InputDepth":1,"InputHeight":24,"InputWidth":24,"OutputDepth":1,"OutputHeight":24,"OutputWidth":24},{"__type":"ConvLayer:#ConvNetSharp.Layers","DropProb":null,"InputDepth":1,"InputHeight":24,"InputWidth":24,"OutputDepth":20,"OutputHeight":24,"OutputWidth":24,"Activation":1,"BiasPref":0.1,"Biases":{"Depth":20,"Height":1,"WeightGradients":[0.0044605303877430251,0.0023920517178573327,0.0071665668830739205,-0.010079501371415963,0.0095556476516551869,-0.00033835762083788096,0.0084741969400888677,0.0037528814906472559,-0.0054986994733658935,-0.0027688338684948373,0.0085314662735861656,0.0034297102405766067,0.0037717081557830409,0.0045837400122720629,-0.0033684654499060579,0.0056338992893405866,0.008883474576220211,0.00064727153923618982,0.0056669415344317913,0.00594809030168318],"Weights":[0.045789507919071527,0.3843957589654276,0.02683071302265046,0.13508111350411833,0.033284642162060618,0.14445200291206883,0.0334342433145091,0.11571228070828327,0.070869864999672377,0.17580476617039434,0.071878924572891273,0.17601564509726914,0.23968201909545425,0.12613865466032395,0.13837844106693664,0.029548902820134317,0.32404326902895947,0.075448470541335855,0.054640144603797562,0.11576301900302137],"Width":1},"FilterCount":20,"Filters":[{"Depth":1,"Height":5,"WeightGradients":[0.0046651173431553556,0.0055717041273608972,0.004881324066255837,0.0024253056927733946,0.0023188858724242753,0.0023099763115346427,0.0028137956270466915,0.0029973958462151664,0.0018284898034581028,0.0013430525251711947,0.0019271876293593842,0.0039564592393153391,0.00274824392408171,0.0018659343576200684,0.00052116073960343959,0.0025261589867358381,0.0037791987046281368,0.002810343850749865,0.002080512889739814,0.0019042571461011042,0.0024466567292677588,0.0036463513999618782,0.0033379596605897445,0.0035655012118434005,0.0028466038210456803],"Weights":[0.25949459337549946,0.18161999346226063,-0.3282063362823881,-0.058481595737401658,-0.016005559970317638,0.12506162753974595,0.10411940201730133,0.025180707412113874,-0.1301067826757833,-0.11964974401243474,-0.26629841053195452,0.0390858124530972,-0.032710893520070262,0.32270349531951559,-0.052580177453147643,0.031220026949117824,0.1584712021455649,0.49861314699082121,0.11359642896821666,-0.18280411352301057,0.13072391066664318,0.11078118475811376,-0.22722521193994261,-0.317382100056619,-0.34447914020805565],"Width":5},{"Depth":1,"Height":5,"WeightGradients":[-0.01076754292935915,-0.0035412410272740837,-0.00064248705507894267,-0.00044015759060877667,-0.0011089377250339484,0.0035790735563973474,0.017815964808592096,0.015152982322204437,0.019429181357832073,0.017026408234647142,0.012345430165828134,0.021188757549667162,0.01684772478905942,0.018069363844939432,0.010318288613720576,0.021267362384686177,0.02356339127201033,0.01792832397630546,0.016015704363099802,0.00098251259357917133,0.013042577391508122,0.008171637135005981,-0.0018611877304940939,-0.0014967006901915004,-0.016519289553260919],"Weights":[0.478813138914745,-0.10145409266887807,0.3257113251531123,-0.10918440637532197,0.10966709006391856,-0.03419697183447469,0.056330371210950039,-0.68857545671420428,-0.521665640897748,-0.41718610782053189,-0.5884611930271928,-0.39540628806706418,-0.14532596166540104,-0.17401625957946654,-0.16291301997211755,-0.017812947686722418,0.10661642475547896,0.37676738741689125,0.086962617088382418,-0.29546527263487682,0.063179484235863184,0.65026031779174942,0.27110941212480211,0.59479695729283111,0.422233978087734],"Width":5},{"Depth":1,"Height":5,"WeightGradients":[0.00548739507780033,0.0047479451627113383,0.0033786118930768162,0.0040905801397405411,0.0022083273090305715,0.0042804847513086561,0.0038747388872895391,0.0045593279259162839,0.0046016296190830395,0.00205770650565357,0.0046378827182668187,0.004957804948738315,0.0048017298374205255,0.0063428243611489722,0.0036965423964527076,0.0071990591615317019,0.006300253160083479,0.0055410186276962136,0.0077129675822635718,0.0049591617187764205,0.0051549836907270209,0.005914930457372655,0.0079190840968433457,0.0085063506599499586,0.0067023334110745993],"Weights":[0.071106762928824452,0.13130990986927724,0.028344244571406566,0.053834739925907926,0.14950318612349758,-0.062597935943641589,0.10439822898966158,0.27348819776016425,0.17664734291303511,-0.13473351344029863,-0.083547712383529441,-0.018615749956568589,0.18935381961682091,0.17178682509013973,-0.24802252185644064,0.30629846866853833,0.040843301292841951,-0.090348748763086933,0.14315025791253261,-0.049586737793376461,-0.12342738061587825,0.048055733814785624,0.085955540125572855,-0.14900759502664054,-0.46293879707899727],"Width":5},{"Depth":1,"Height":5,"WeightGradients":[-0.012859293372657949,-0.01348621977787311,-0.00792173614289496,-0.0043276010280210173,-0.0031467300882168062,-0.010327963947039045,-0.0092764108079964446,-0.0017836598610325406,0.00075647329436011009,-0.0011754019970795348,-0.0024534804676241738,-0.0035326139256469788,0.00090987895159975421,0.0033332713997486067,0.00013649875983022872,8.9092975229193116E-05,0.0025721927710140187,0.0050133944065671107,0.0015669009426980663,-0.004998278288995431,0.0017859400842835361,-0.0012882931722135959,-0.0029643222477151714,-0.0054604937724418469,-0.012064014868505956],"Weights":[0.2496636580058115,0.05316645979668487,0.13203495672971058,0.14279276973837443,-0.15825693503241045,-0.17478196593996759,0.14157759912946941,0.0669138824830559,-0.38269945389771781,-0.34397975174695072,-0.15209095296932673,0.17070266626472833,-0.028793643859401464,-0.56558901389636485,0.089027270967846475,-0.18613197871401974,0.15427541821064006,-0.23883679139951686,0.23081693136782308,0.34700553865253259,0.025792532413372222,0.094252969814019052,-0.046376134445110836,0.12526675172707849,-0.034281160335092327],"Width":5},{"Depth":1,"Height":5,"WeightGradients":[0.0058965711752594647,0.00944019051775328,0.0080931421402975611,0.01109097363543732,0.0069600699154538214,0.0039702710806541093,0.0095535553469844239,0.010308814757247842,0.011793149068376347,0.0073423731658619328,0.0037035803425049594,0.0062554491370039027,0.0097838368386730951,0.010629730002169749,0.0070144272977040369,0.0036507993268172973,0.0077475474539129389,0.012720133170508978,0.013568780789281174,0.011470354243027713,0.00551502343688303,0.010114795813866945,0.012714032479546956,0.013313838101728117,0.010379926164769475],"Weights":[0.13730945761791258,0.30378507907017982,-0.046195748041673819,-0.12733402506984956,-0.036629841272012659,0.19503104562245685,0.01395625707151674,0.15531251037904648,0.1149467874919065,0.056969968641471372,0.1382399120056198,0.0035454570954280978,0.368408205151069,0.21869049439726068,0.0030182430530407076,-0.49025781794723594,-0.070057372396656672,-0.39247025751140358,-0.038328874932539052,-0.037713207846363922,-0.30642621035475137,0.13713417890072313,0.18367068243254778,-0.17819081684781263,-0.37886529972728816],"Width":5},{"Depth":1,"Height":5,"WeightGradients":[0.0020882980960392986,0.0032528471654468664,0.0046631262917461083,0.00041032720528066567,0.00058308883736687392,0.0023050737033720411,0.0014712127745274343,0.0030756137818138134,0.00084841019446793575,-0.00069552923245742588,-0.00013762770289411897,0.00095514443176132992,0.0030716084035539559,0.00048891279366881436,-0.0025683288101090349,-0.001150358369947468,0.0011384660194422036,0.0028565766615555755,0.0015367579740729943,-0.0010264619032061147,-0.00013413762436919252,0.0021686951303669282,0.0027100951459295025,0.0014514593170637394,-0.00171790501838573],"Weights":[0.43411237073618714,-0.19670053522762485,-0.4586565593909262,0.14622429833673453,-0.21593793498866562,0.11278194312222338,0.049494644279448281,-0.12190204031950871,-0.20791433568469583,0.065577721453163054,0.304824760640771,-0.01022388640423829,-0.081924573195182593,0.080349459789295433,-0.23959321877676096,0.16108844366053002,-0.18838583909031359,0.10016150666168239,-0.50167258749151611,0.14892856634243415,0.23882785836592374,0.044926793106138063,-0.37498323078199441,-0.35979172035975615,0.10766848607816992],"Width":5},{"Depth":1,"Height":5,"WeightGradients":[0.0059604248326899584,0.004998099259211056,0.0054315861175466031,0.0045713596905205744,0.006963108354690919,0.0034304653680729408,0.00407554351509435,0.0054801185406387854,0.00584284788501632,0.0085410312443485546,-0.00051703098526963034,0.0015755516110595366,0.0058338484794136008,0.0048905556065251829,0.008515852683495459,0.0018557536011618481,0.0043356594006571372,0.0073397487815652484,0.0068285167193498867,0.0081475500435781376,0.0032543901595762227,0.0057464622123121582,0.0067846477839219469,0.0089377747913929155,0.0057465277523300849],"Weights":[0.50499012122082843,-0.17382674804903045,-0.28477921056160671,0.19213539370608912,0.19116711524865879,-0.14123230069130538,0.35517311471936036,-0.026096079479800513,0.25874968288197164,0.0995914722999466,0.0066783193069492259,-0.22558145709089844,-0.18829805606860023,-0.040065686096862847,-0.090298807852026361,-0.077981870394289721,-0.144185036328474,-0.036202351424545393,0.14224379993734862,-0.16219171741999516,0.03812023355566152,0.13839635072680856,0.20924407751420454,0.21376543022651745,0.17494103908264741],"Width":5},{"Depth":1,"Height":5,"WeightGradients":[0.0034868207266192837,0.0042684541435273312,0.0055026625467836116,0.010663839876218618,0.0074638801496954817,0.010123788558189465,0.01141341611343431,0.011000293035212602,0.011626714325730593,0.0068991127732593652,0.0074358801371971752,0.012819783547398574,0.012701023687486853,0.010114106245996081,0.0065250414920492031,0.0036352613983749158,0.014583178888036145,0.014898264475510615,0.012972893238681943,0.0069125575554632394,0.0041060363898272256,0.010251021133644471,0.0096764223530718917,0.0099111222712358459,0.0045599369870253526],"Weights":[-0.019508270629385205,0.13245037844329002,0.0890379837690617,-0.16981446068343825,-0.47432355010321159,0.091194544520893817,-0.049169002205520215,0.51516267333403754,-0.24760752602764477,-0.075680347828352118,0.17215719114636965,0.12796006040921804,0.089595473025645245,-0.24087794976740595,0.105362074594728,0.065899395519163337,-0.521321648063104,-0.0970626947738819,0.25385615069118928,0.26184558479968506,-0.030700165790484665,-0.41548442494240212,0.14728884384410049,0.10313793225624793,0.068246818449545651],"Width":5},{"Depth":1,"Height":5,"WeightGradients":[-0.00031837306974531179,0.0035005308849634315,0.0037117088336281953,0.0035075228756788058,0.00034206217974693616,-0.0019663880185392772,0.0018693060887554137,0.000500519981555997,0.0016213434237453128,-0.0026741739309997618,-0.0028367731976108052,-0.0022371372441865327,-0.0034941715089160563,-0.0033892603633635166,-0.0072268474028053115,-0.0035933121715740041,-0.0020521585618701516,-0.005541220449028615,-0.00707309060254296,-0.007591619011618817,-0.0029929517071717519,-0.0044934055114234824,-0.0086564967106071249,-0.0085743956065764265,-0.007053701395776108],"Weights":[0.14658010034357896,-0.21297916489947602,-0.10812901259883599,-0.14678063635168417,0.14723576591629672,-0.23423393519796029,-0.13274599193537295,0.025644844643704395,0.095654037042869358,0.070947612723841411,0.31150673379463384,0.03786400990665257,0.069541420587958119,0.073836115657312476,0.054453796751137741,-0.4179135488196028,0.23061562693063487,-0.048758304867700615,-0.018080857212657685,0.098535724894021015,-0.25602370466818436,-0.0649796533875492,-0.030037176882807212,0.18647513222337897,0.015261039653504189],"Width":5},{"Depth":1,"Height":5,"WeightGradients":[-0.0058903050861703245,-0.0041097177521520322,0.0028117010705792805,0.0062684058606470817,0.001513342245468558,-0.0027476804204010796,0.00061198915473774352,0.0033726037396952396,0.0041581654925100884,-0.0027535112906905148,0.0015664175944653791,0.00657066759732524,0.003580258426432966,0.0038834037363122526,-0.0038734892983635044,0.00086538023980799986,0.002506706372916247,0.00020639957063657777,0.0013869067600618958,-0.0077623574956870193,0.0011078230001022006,0.0017075782497599358,-0.00063126457310736992,-0.0026766042113206875,-0.010417756958039965],"Weights":[0.11076999322214362,-0.13009424846996262,0.0426592231709095,-0.23274913897796862,-0.19146925797267617,-0.042542023301858231,-0.089573119633340359,0.11741018139441527,0.059664141112498834,0.11359789680774476,0.38468580034794858,-0.33046905903043933,-0.22687642878623815,0.11040064094416863,0.144704827488227,0.0631098214689473,-0.14279538615196005,-0.70624689099438542,0.422461405235393,0.0020223839268941708,0.25921230236652321,-0.023751356303880908,-0.0798974091934111,0.18998418667869108,-0.095055410912341459],"Width":5},{"Depth":1,"Height":5,"WeightGradients":[0.005725656930311792,0.0085624191620709954,0.0085508531689426417,0.011747085303140932,0.0084661366618127946,0.010656414937202293,0.010508288794981741,0.0099508898416972771,0.011798547936297987,0.00799433236745185,0.0087802114972810336,0.0088072693129515357,0.0086051776110433568,0.010568730701045951,0.0071999982048224108,0.0075893457740962436,0.0098424137292353973,0.00887252431871667,0.010457825940475575,0.0063690951042644772,0.0051984516554901454,0.0058853941855710728,0.0045820372254158333,0.0045909235994061525,0.00246280762812276],"Weights":[-0.20651878901030443,-0.2973711546177113,-0.33545794290854719,-0.46061436733620231,-0.34213745548577518,0.31491635814735525,0.23687326500842013,0.036121337517375743,0.25037274670399096,0.013182293373729654,0.0835024020415807,-0.0080481146696406766,0.20340320638705045,0.42494765252735672,-0.32840292766993451,-0.0553259830656179,0.12474975863049673,-0.036154395506638751,-0.022930329931812158,0.1410045730841184,0.21927902631905796,0.25757667707122078,-0.12831057253912559,-0.11317512898597577,-0.0490975488392057],"Width":5},{"Depth":1,"Height":5,"WeightGradients":[0.0043118193723109023,0.00013695181489168826,0.00036709735321904238,-0.0016393823109336313,-0.00156805818627524,7.856321255570451E-05,-0.001720452114530991,-0.003935854552163805,-0.004065324561170338,-0.0012901904044785829,-0.00013491271214801867,-0.00078613090566392711,-0.0030733444124299383,-0.0025000607435132897,-0.00053635483010887114,0.0037617893547271914,0.00052393626393329657,-0.0042339241337723509,-0.003429363490830695,-0.0006229261554636838,0.0069322265624964874,0.00089490666319223713,-0.0023226777114328909,0.00010908557941346524,0.00043519013449727905],"Weights":[-0.23813426246274569,-0.33049269732776337,0.29777982344264242,0.44259919507190804,0.13377651225787385,-0.14902920610279538,-0.17778694434105213,-0.22970527478758196,0.1746848516595127,0.024327057304309126,-0.067525441838619041,0.18858158159246111,-0.071112085711717635,0.36738412200503695,0.38226816337328867,-0.54086448275494214,0.129970384575544,-0.04247493995660253,-0.060681188020759988,-0.11024618997156453,-0.62588695174380971,0.00073207213178314414,-0.248641045541988,0.3399468877841571,-0.11839569167699235],"Width":5},{"Depth":1,"Height":5,"WeightGradients":[0.0033180718579508542,0.0018851843007169009,-0.0027974037903105839,0.0018807301723217495,0.00266404222576829,0.0015374249184480645,0.0023231214547876594,-0.001236413443205808,0.0032304503814896868,0.0040082494038841321,0.0041530134210541548,0.0039708020467194806,-0.000505505704663589,0.0037422810617971018,0.0022944170179062507,0.0058248350704812359,0.0070672712543080815,0.0015194841275867972,0.0031193851183990017,0.0016174124823831551,0.0026560303816185035,0.0044910107888445679,0.00049692075270085453,0.00014684652855189134,-0.0025516682102397835],"Weights":[-0.15480416593091739,-0.20855273270204386,-0.38217824543474327,0.031906989260681459,0.33993787183854818,-0.16126300345723596,-0.051231034909719017,-0.12847685972123679,0.20003714215849952,0.34290897596509057,0.25235332537423988,-0.00908988315724333,-0.39543607673303377,0.26923477560272024,0.38957938187203106,-0.00724354487074734,-0.27014807176927552,-0.42099687355561571,-0.036791737966536467,0.236404152182745,0.1584592918807772,-0.24966584332146,-0.57394075689514212,-0.33922179350660681,0.42496664775193305],"Width":5},{"Depth":1,"Height":5,"WeightGradients":[-0.0020634828748039677,0.00335076931435724,0.0062467560358323354,0.0071929621179328863,0.009379526150902439,-0.0021645473391001895,0.0038970281815154523,0.011539544836071282,0.012854612024646168,0.015928570791639139,-0.0010938215468299546,0.0050640597813366188,0.014562686812530491,0.014950728882951221,0.019244589602220835,-0.0013495960636106504,0.003880487957745855,0.014060671555879473,0.01407192306900077,0.017521204818357897,0.0011071074374992599,0.0027827976743304583,0.0080590703556676878,0.0075387486540740289,0.0062694349238157322],"Weights":[0.027642317720985271,0.18784054302402639,0.15514141899383988,0.18316888477116688,0.13613597343105449,0.12896857570750625,0.1735557475328694,0.13199824573144461,0.33795062987262192,0.016023741802060065,-0.13461785655142564,0.018690258396988863,0.10741686606771057,-0.2121447786197099,-0.37215307675850634,-0.18633966334534288,-0.21370727273186532,-0.25959346261714777,-0.12769899258559583,-0.35321567284734884,-0.25181551510781142,-0.16031704003728028,-0.15000618848784944,0.55364192270089529,0.073710806586594166],"Width":5},{"Depth":1,"Height":5,"WeightGradients":[-0.00034029511072769492,0.0014225883006030518,-0.0016984179952476784,0.0040816579232901117,0.00093681132204459841,0.0011664566261154888,0.0048504133872217222,0.003158284024025247,0.0069344571038714208,0.00319058240509971,0.0068331551942078282,0.0073805808816351636,0.0044384989545281344,0.002725411575789359,0.00082738546839656148,0.0036255330412775554,0.0011047051201278867,0.00048516623695132324,-0.00405861484060494,-0.0067537818618377586,0.0025020005226078432,-0.001367987903091793,-0.0034846433434771876,-0.0091109988379296774,-0.0097319810478023773],"Weights":[0.28441594100421563,0.040508491561031514,0.11695147284858924,-0.17464629879254781,0.15592451535751642,-0.23115011514993317,-0.52265773674838623,-0.40770499113501013,-0.12772411089723113,-0.34456874587457637,0.02708495260137455,-0.0023104783889893992,0.10495914903142463,0.0345114140807566,-0.15735327798525059,0.22307220997855592,-0.20232445594824913,0.09923784633574903,0.11809029639094101,0.24569592196731832,0.13825570335844362,0.19168828188054268,0.41803004985534836,-0.26558814628046118,-0.1095408013559034],"Width":5},{"Depth":1,"Height":5,"WeightGradients":[0.0034602210805696953,0.0027939030760094118,0.0023397901409342205,0.0046756944015640236,0.0034945643566264865,0.0042558897462538587,0.0027688158796016138,0.004582087964193628,0.0029725244256081978,0.0029426748367598022,0.008049881132051729,0.0044253609501607822,0.0061509212911089895,0.0034386193180282153,0.0028522935457065968,0.0034355116515224211,0.0005808828628400839,0.0015864060465282568,0.00078261697668064074,0.0021114491537388672,0.0028099920511483545,0.0027882363008610109,0.0024772272830514332,0.0020996730300831233,0.0042818439041922892],"Weights":[0.092230565912746254,-0.11212859653153509,-0.24563084095896684,-0.17441843726792342,0.13916379378291649,-0.015463775005331913,-0.053758623938983396,-0.17094756077535347,0.26216425974648255,0.073497659528759127,0.19203977151804413,0.042722209851774676,-0.024271030802246546,-0.094656431675436761,0.0751544466299106,-0.17824673788301065,0.201970329662185,-0.05830664690501907,-0.024464155481547564,-0.019715155790213056,0.026526741293810611,-0.52447396884118791,0.36711343999868085,0.20353542847282344,0.088371820145252689],"Width":5},{"Depth":1,"Height":5,"WeightGradients":[0.0034423017463766706,-0.0025174888792096756,-0.0030781482732821107,-0.00070349960999581559,0.0040956019482892526,0.0034643753583278583,0.0017251096416959436,-0.00073249953008412672,0.00036625871208148194,0.0038739187166577762,0.00032512170813863811,0.00014328443261958678,0.0011181259490132991,0.0032659180452362735,0.0045389985980889254,0.0045254459698746289,0.0058248942869669317,0.0075292190839813941,0.0046524770184995182,0.0030040042493893592,0.0050128972333320764,0.0044628530013948869,0.0079910174796374387,0.0047159430814334305,0.0038884731245600246],"Weights":[0.13195871199976883,-0.0681124748695082,-0.21796897496904125,0.030393728001585317,0.0505853059369261,0.27868245939449721,-0.1488383961158232,-0.35361603124587582,-0.077826367758031742,0.29351760163132828,-0.11841989948037686,-0.032873384924085619,-0.44857607362051993,-0.4727527604341179,0.19629775309528869,0.015291152889260367,0.53344743590692556,-0.39576261934193696,-0.53858036791189623,-0.18021464348722988,0.25778954256847891,0.38224050648714231,-0.0057406696630335329,-0.29014551267830568,-0.012991094685961411],"Width":5},{"Depth":1,"Height":5,"WeightGradients":[-0.0017358673383302097,0.0014126280318379576,0.0023738900478019408,0.0023451467700484042,0.0018253201734460549,0.0039688129244908332,0.0046048706137184758,0.004386473040097036,0.0030808345838819204,0.0031469622485977597,0.0026735170915767568,0.0042630084714887755,0.0026892694947935926,0.00084220777007426833,-0.00065743000293799671,0.0015578962138490863,0.0026963997668631983,0.0010379067316643143,-0.00029603637199435574,-0.002098381037346774,0.0020543222942957873,0.0013629814965172415,-0.00066492902083388418,-0.000771607652649713,-0.0031613056637703066],"Weights":[-0.22830778881275998,-0.01821833682854121,-0.22928085191435982,-0.55704183446553057,-0.21794079370432667,-0.0989318581116582,-0.30496080920388363,0.0737509789364703,0.16020058907954168,-0.33618938296005091,-0.026051695574723581,0.27868477522278268,0.0032902645488645443,0.16009734203846682,0.19028250633415744,-0.36653709179658323,0.44919655122693858,0.28654980073552422,0.23106112507885918,0.3209662920218922,-0.22515538374564287,0.15274944515997233,0.11104001581475922,0.27256809883687788,0.35646116842489889],"Width":5},{"Depth":1,"Height":5,"WeightGradients":[0.0056666365075751218,0.0076747307716921159,0.0059954367753086157,0.00817767537404892,0.0083022450359580748,-0.0020655010250376742,0.0004369487360194626,0.00099604412307783717,0.00402805357583802,0.0033954178721161488,-0.0032365142635479281,-0.0024695301395644617,-0.00097145981956478554,0.0020118012719275353,0.0024263782602487105,-0.0074982999899895521,-0.0068726731161591953,-0.002137244466719335,0.0020252796795115092,0.0049645365775039235,-0.0036107976229178425,-0.001412941268399439,0.0024696610139185505,0.0049118554745489051,0.00895557954324663],"Weights":[-0.17580766995406819,0.2132717790155596,0.2530756448174864,0.34533349737197427,0.29057247014059057,-0.092823686188879859,0.12455661948237008,0.21144105547640804,0.089591281239296036,-0.010396253457310637,0.022365164995180816,0.16616101679010403,0.17052590943745688,0.18800438089470814,0.020761998644812485,-0.13473397613749602,-0.14061398074694589,0.21767016420777857,-0.030544115394984819,0.0932539837794403,-0.45762206504419412,-0.00801958808875288,-0.48997539026300635,-0.18947299185115429,-0.23963723999875358],"Width":5},{"Depth":1,"Height":5,"WeightGradients":[0.0025797019722781315,0.0042771501709741458,0.0045864081350813,0.0081899496228723459,0.0098160235438873623,0.00037856275582559372,0.0013567031053691343,0.0016368819545102495,0.0038982193205743137,0.00519059012643593,-0.00051421264569225314,-0.0052781323810822678,-0.0025047854742359689,0.001623837840512981,0.002705307185768586,0.00069181089758442655,-0.0017996857270592699,0.00056209371714877033,0.0008062343743630839,0.0012302287885492687,0.0021895600646068504,0.00016455916930704692,0.0031817286149249759,0.0024576524149959159,0.0030858655522630393],"Weights":[-0.18125384299054817,-0.14086143564797382,0.30355086808974097,0.049074457645778016,0.053365491684360035,-0.18211777080566882,0.12331347843850915,0.30426815448042593,-0.04851184254980203,0.15441902078536063,-0.010872859695407057,-0.022806773330014945,-0.038237147877667507,0.25272397574786748,0.053012689587521644,0.046765346118323566,-0.29429673534416184,0.4862431366386093,-0.069944462607598235,-0.25137104538157951,0.21890894196092758,-0.23306413326575889,-0.36764430249881191,-0.35451515688673624,-0.013106062885098654],"Width":5}],"GroupSize":2,"Height":5,"L1DecayMul":0,"L2DecayMul":1,"Pad":2,"Stride":1,"Width":5},{"__type":"ReluLayer:#ConvNetSharp.Layers","DropProb":null,"InputDepth":20,"InputHeight":24,"InputWidth":24,"OutputDepth":20,"OutputHeight":24,"OutputWidth":24},{"__type":"PoolLayer:#ConvNetSharp.Layers","DropProb":null,"InputDepth":20,"InputHeight":24,"InputWidth":24,"OutputDepth":20,"OutputHeight":12,"OutputWidth":12,"Height":2,"Pad":0,"Stride":2,"Width":2,"switchx":[1,0,0,0,0,0,0,0,0,0,0,1,2,2,2,2,2,2,2,2,2,3,3,3,4,4,4,4,4,5,5,5,5,4,5,5,6,6,7,7,7,7,7,7,7,6,6,6,9,9,8,8,8,8,8,8,9,8,8,8,10,10,10,10,10,10,11,11,10,10,10,10,12,12,12,13,12,12,13,13,12,12,12,13,14,14,15,14,14,14,14,14,14,15,14,14,16,16,16,16,17,16,16,16,16,16,16,17,18,18,18,18,18,19,18,19,18,19,18,18,20,20,20,21,20,20,20,20,20,20,20,20,23,23,23,23,23,23,23,23,23,23,23,22,1,1,1,1,1,1,1,1,1,1,1,0,2,2,2,2,2,2,2,2,2,3,3,2,4,4,4,4,4,5,5,4,4,5,5,4,6,6,6,7,6,7,7,6,6,6,7,6,8,8,9,9,8,9,9,8,9,8,9,8,10,10,11,11,10,10,11,10,10,11,10,10,12,12,13,13,12,12,12,12,12,13,13,12,14,14,15,14,15,14,14,14,15,14,14,14,16,16,16,16,17,17,17,17,17,16,16,16,18,19,18,18,18,19,18,19,18,18,18,18,20,20,20,21,20,20,20,20,20,20,20,20,22,23,23,23,23,23,23,23,23,23,23,22,1,1,1,1,1,1,1,1,1,1,1,1,2,2,2,2,2,2,2,2,2,3,3,2,4,4,4,4,4,5,5,4,4,4,4,4,6,6,7,7,7,6,6,6,6,7,6,6,9,8,8,8,8,8,8,8,9,8,9,8,10,10,10,10,11,11,10,10,10,10,10,11,12,12,12,13,13,13,13,12,12,12,12,13,14,14,14,14,15,14,14,14,14,14,15,14,16,16,16,17,17,16,17,17,17,17,17,17,19,19,19,19,18,18,19,19,19,18,18,18,20,21,20,21,20,20,20,20,20,20,20,20,22,22,22,22,22,22,22,22,22,22,22,22,1,1,1,1,1,1,1,1,1,1,1,0,2,2,2,2,2,2,2,2,2,2,2,2,4,4,4,4,4,4,4,4,4,5,5,4,6,6,6,6,6,7,7,6,6,6,7,7,8,8,9,9,8,8,8,8,8,8,8,8,10,10,11,11,10,10,10,10,10,11,11,10,12,12,13,13,12,12,12,13,13,13,12,12,14,14,15,14,14,14,14,14,14,14,14,14,16,17,17,16,16,16,16,16,16,16,16,16,18,18,18,18,18,18,18,19,18,18,18,18,20,20,20,20,20,20,20,20,20,20,20,20,22,23,23,23,23,23,23,23,23,23,23,23,1,1,1,1,1,1,1,1,1,1,1,1,2,2,2,2,2,2,2,2,2,2,2,2,4,4,4,4,4,4,4,4,5,4,4,5,6,6,7,7,7,6,6,7,6,7,6,7,9,9,8,8,8,8,8,8,8,9,8,8,10,10,10,10,10,10,10,11,11,10,10,10,12,12,12,13,13,13,12,12,12,12,12,12,14,14,14,14,14,14,14,14,14,14,14,15,16,16,16,16,16,16,17,16,17,16,16,16,18,18,19,18,18,18,18,18,18,18,18,18,20,20,20,20,20,20,20,20,20,20,20,20,22,23,23,23,23,23,23,23,23,23,23,22,0,0,0,0,0,0,0,0,0,0,0,0,2,2,2,2,2,2,2,2,2,2,2,2,4,4,4,4,4,4,4,4,4,4,4,4,6,6,6,6,7,7,6,6,6,7,7,7,8,8,9,9,9,9,9,8,8,8,8,9,10,11,10,10,10,10,10,10,10,10,10,10,12,12,12,12,12,12,13,13,13,13,12,12,14,14,14,14,14,14,15,14,15,14,14,14,16,17,16,16,16,16,16,16,16,16,16,16,18,18,18,18,18,18,18,18,18,18,18,18,20,20,20,20,20,20,20,20,20,20,20,20,23,23,23,23,23,23,23,23,23,23,23,23,1,0,0,0,0,0,0,0,0,0,0,0,2,2,2,2,2,2,2,2,2,3,3,2,4,4,4,4,4,5,5,4,4,4,4,4,6,6,6,7,6,6,6,6,7,6,6,6,8,8,8,8,9,9,9,9,9,8,9,9,10,11,11,11,11,10,11,10,10,10,10,11,12,12,13,12,12,12,12,12,12,12,13,12,14,14,15,14,15,15,15,14,15,15,15,15,16,16,16,17,17,16,17,16,16,16,16,16,19,19,18,18,18,18,18,19,19,19,18,18,21,20,20,21,20,20,20,20,20,20,20,20,22,22,22,22,22,22,22,22,22,22,22,22,0,0,0,0,0,0,0,0,0,0,0,0,2,2,2,2,2,2,2,2,2,2,3,3,4,4,4,4,4,4,5,5,4,4,5,5,6,6,6,6,6,7,7,7,7,7,7,7,8,8,9,9,9,9,8,8,8,9,8,8,11,11,11,10,10,10,10,11,10,11,11,10,12,12,12,12,13,12,12,13,13,13,12,13,14,14,14,15,14,15,14,15,14,14,14,14,17,17,16,16,16,17,17,17,17,16,17,16,19,19,18,18,18,18,18,18,18,19,18,18,20,20,21,20,20,20,20,20,20,20,20,20,23,23,23,23,23,23,23,23,23,23,23,23,1,0,0,0,0,0,0,0,0,0,0,0,2,2,2,2,2,2,2,2,2,2,2,2,4,4,4,4,4,4,4,4,4,4,4,4,6,6,6,6,6,6,6,6,7,6,7,7,8,8,8,8,8,8,9,9,8,9,8,9,10,10,11,11,11,10,10,10,10,10,10,11,12,12,13,13,13,12,12,12,12,12,13,13,14,14,14,15,15,15,14,14,15,15,15,14,16,17,17,17,16,17,16,16,16,16,16,16,19,18,19,18,18,18,18,18,18,18,18,18,20,20,20,20,20,20,20,20,20,20,20,20,22,22,22,22,22,22,22,22,22,22,22,22,0,0,0,0,0,0,0,0,0,0,0,0,2,2,2,2,2,2,2,2,2,2,2,2,4,4,4,4,4,4,4,4,4,4,5,5,6,6,6,6,6,6,7,7,6,7,6,7,8,8,9,9,9,9,9,9,8,8,9,9,11,11,11,11,10,10,10,10,10,10,11,10,12,12,12,12,12,12,12,12,13,13,12,12,14,14,15,14,14,14,15,15,15,15,14,15,16,16,17,16,16,16,16,16,16,16,16,16,18,18,18,19,18,18,18,18,18,18,18,18,21,20,20,20,20,20,20,20,20,20,20,20,22,22,22,22,22,22,22,22,22,22,22,23,1,0,0,0,0,0,0,0,0,0,0,0,2,2,2,2,2,2,2,2,2,2,3,2,4,4,4,4,4,4,5,5,5,4,4,5,6,6,7,7,7,6,6,7,6,6,6,7,9,8,8,9,8,8,9,9,8,8,9,8,10,10,10,10,10,10,11,10,11,10,10,10,12,12,13,13,12,12,12,12,12,12,13,12,14,14,14,15,14,14,14,14,14,14,14,14,16,16,16,16,16,16,16,16,16,16,17,16,18,18,18,18,18,18,18,18,19,19,18,18,21,21,21,20,20,20,20,20,20,20,20,20,22,22,22,22,22,22,22,22,22,22,22,22,1,0,0,0,0,0,0,0,0,0,0,0,2,2,2,2,2,2,2,2,2,2,2,2,4,4,4,4,4,4,4,4,4,4,4,4,6,6,6,6,6,6,6,6,6,6,6,6,8,8,8,8,8,8,8,8,8,8,8,9,10,10,10,11,11,11,10,10,11,10,10,11,12,12,12,13,12,12,12,12,12,12,12,13,14,14,14,14,15,14,15,14,15,15,15,14,16,16,17,16,16,16,16,17,17,16,16,16,18,18,18,19,18,18,18,18,18,18,18,18,20,20,20,20,20,20,20,20,20,20,20,20,22,22,22,22,22,22,22,22,22,22,22,22,0,0,0,0,0,0,0,0,0,0,0,0,2,2,2,2,2,2,2,2,2,2,2,2,4,4,4,4,4,4,4,4,4,4,4,4,6,6,6,6,6,6,6,6,7,7,6,6,8,8,8,8,9,9,8,8,8,9,8,9,11,11,10,11,11,11,10,10,10,10,10,11,12,12,12,12,12,13,12,12,12,12,12,12,14,14,14,14,14,15,15,15,15,15,15,14,17,17,17,17,16,16,16,16,16,16,16,16,18,18,18,18,18,18,18,18,18,18,18,18,20,20,20,20,20,20,20,20,20,20,20,20,22,22,22,22,22,22,22,22,22,22,22,22,0,1,1,1,1,1,1,1,1,1,1,1,2,2,2,2,2,2,2,2,2,2,2,2,4,4,4,4,4,4,4,4,4,5,4,4,6,6,7,7,6,6,6,6,7,6,6,6,8,8,9,8,8,8,8,8,8,9,9,8,10,11,11,10,11,11,10,10,11,10,10,11,12,12,12,12,13,13,12,12,12,12,12,13,14,14,14,14,15,14,15,14,14,14,14,15,16,16,16,16,16,16,17,17,17,16,16,16,18,18,19,18,18,18,18,18,18,18,18,18,20,20,20,20,20,20,20,20,20,20,20,20,22,22,22,22,22,22,22,22,22,22,22,22,0,0,0,0,0,0,0,0,0,0,0,0,2,2,2,2,2,2,2,2,2,2,2,2,4,4,4,4,4,4,4,4,5,4,5,4,6,6,6,7,7,7,7,6,6,7,7,6,8,8,8,8,9,9,9,8,8,8,9,9,10,10,11,10,10,10,11,10,11,10,11,10,12,12,13,13,12,12,13,13,12,13,12,12,14,14,15,15,14,14,14,15,15,15,14,14,16,16,16,16,16,16,16,16,16,16,16,16,18,18,18,18,18,18,18,18,18,18,18,18,20,20,20,20,20,20,20,20,20,20,20,20,23,23,23,23,23,23,23,23,23,23,23,22,0,0,0,0,0,0,0,0,0,0,0,0,2,2,2,2,2,2,2,2,2,3,2,2,4,4,4,4,4,5,4,4,4,4,4,4,6,6,6,6,6,6,6,7,7,6,7,6,8,8,8,8,9,9,9,9,8,8,8,9,10,10,11,11,10,10,10,10,10,11,11,11,12,12,12,12,13,12,12,12,12,13,13,12,14,14,14,14,14,14,15,15,15,15,14,14,17,17,17,17,16,17,16,17,16,16,16,16,19,19,18,18,18,18,18,19,18,19,18,18,20,20,20,21,20,20,20,20,20,20,20,20,22,22,22,22,22,22,22,22,22,22,22,22,0,0,0,0,0,0,0,0,0,0,0,0,2,2,2,2,2,2,2,2,2,2,2,2,4,4,4,4,4,4,4,4,5,5,4,4,6,6,6,6,6,7,6,6,6,6,7,6,8,9,9,9,9,8,9,8,8,8,8,8,10,10,10,10,10,10,11,10,10,10,10,10,12,12,13,12,12,13,13,13,12,12,12,12,14,14,15,14,14,14,14,14,14,15,14,14,16,16,17,16,16,16,16,16,16,16,16,16,18,18,18,18,18,18,18,18,18,18,18,18,20,20,20,20,20,20,20,20,20,20,20,20,23,23,23,23,23,23,23,23,23,23,23,22,1,1,1,1,1,1,1,1,1,1,1,1,2,2,2,2,2,2,2,2,2,2,3,2,4,4,4,4,4,4,5,5,5,4,5,5,6,6,6,6,6,6,7,7,6,6,7,6,8,8,8,8,8,8,9,9,8,8,8,9,10,10,11,11,11,10,10,11,10,10,11,10,12,12,13,13,13,12,12,12,12,13,12,12,14,14,14,14,15,14,14,14,15,14,14,14,16,16,16,16,17,17,17,17,17,16,16,16,18,19,18,18,18,18,18,18,18,18,18,18,20,20,20,20,20,20,20,20,20,20,20,20,22,22,22,22,22,22,22,22,22,22,22,22,1,1,1,1,1,1,1,1,1,1,1,1,2,2,2,2,2,2,2,2,2,3,3,2,4,4,4,4,4,5,5,4,5,5,4,4,6,6,7,7,6,6,6,6,7,7,6,6,8,9,9,8,8,8,8,8,8,9,8,8,11,11,11,10,11,11,10,10,11,10,10,11,12,12,12,13,13,13,12,12,12,12,12,13,14,14,14,14,14,14,15,14,14,14,15,14,16,16,16,16,16,16,17,17,17,17,17,16,18,18,19,19,18,18,18,18,18,18,18,18,20,20,20,20,20,20,20,20,20,20,20,20,22,22,22,22,22,22,22,22,22,22,22,22,0,0,0,0,0,0,0,0,0,0,0,0,2,2,2,2,2,2,2,2,2,2,2,2,4,4,4,4,4,4,4,4,5,5,4,4,6,6,7,7,7,7,6,6,7,7,6,6,9,9,9,8,8,8,8,8,8,8,8,9,11,11,10,10,11,11,10,10,11,10,10,11,12,12,12,12,12,13,12,13,12,12,12,13,14,14,14,14,14,15,15,15,14,14,15,15,16,16,16,16,16,16,17,17,17,17,16,16,18,19,19,19,18,18,18,18,18,18,18,18,20,20,20,20,20,20,20,20,20,20,20,20,23,23,23,23,23,23,23,23,23,23,23,22],"switchy":[0,2,4,6,8,10,12,14,16,18,20,22,1,2,4,6,8,10,12,14,16,18,21,22,1,2,4,6,8,10,13,14,17,18,21,22,1,2,5,7,8,10,13,14,17,18,21,22,1,2,4,7,8,10,13,14,17,18,20,22,1,2,4,6,9,10,12,15,17,19,21,22,1,2,4,6,8,10,13,15,16,18,21,22,1,2,5,6,9,10,13,15,16,19,20,22,1,2,5,7,8,10,12,14,16,18,20,22,1,2,4,6,8,10,12,14,16,19,21,22,0,3,4,6,8,10,12,14,16,18,20,22,1,2,4,6,8,10,12,14,16,18,20,22,0,2,4,6,8,10,12,14,16,18,20,22,0,2,4,6,8,10,12,14,16,19,21,22,0,2,4,6,8,11,13,14,17,19,20,22,0,2,4,7,9,11,12,15,16,19,20,22,0,3,4,7,8,11,12,15,16,19,20,22,0,2,4,6,8,11,12,15,16,19,20,22,0,2,4,6,8,11,12,15,16,19,20,22,0,2,4,6,8,10,12,15,17,19,20,22,0,2,4,6,8,11,12,15,17,18,20,22,0,3,4,6,8,10,13,14,17,18,21,22,0,3,4,6,8,10,12,14,16,18,20,22,0,2,4,6,8,10,12,14,16,18,20,22,1,2,4,6,8,10,12,14,16,18,20,22,1,2,4,6,8,10,12,14,16,18,20,22,1,2,4,6,8,10,12,14,17,18,20,22,1,2,5,7,8,10,12,15,17,18,21,22,1,3,4,6,8,10,13,15,17,18,20,23,1,2,4,6,8,10,12,15,17,18,20,23,1,2,4,7,9,10,12,15,17,18,20,22,1,2,4,7,8,10,12,15,16,18,21,22,1,2,4,7,9,11,12,14,17,19,21,22,1,3,5,7,8,10,12,15,16,18,21,22,1,3,5,6,8,10,12,14,16,18,20,22,1,2,4,6,8,10,12,14,16,18,20,22,0,2,4,6,8,10,12,14,16,18,20,22,0,2,4,6,8,10,12,14,16,18,20,22,0,2,4,6,8,10,12,14,16,19,20,22,0,2,4,6,8,11,12,14,17,19,21,22,0,2,5,6,9,10,12,14,16,19,21,22,0,2,5,6,8,11,12,14,16,19,20,22,0,2,5,6,8,11,12,15,17,19,20,22,0,2,4,6,8,11,12,15,17,19,20,22,0,3,4,6,8,11,12,15,16,18,20,22,0,3,4,6,8,10,13,14,17,18,20,22,0,3,4,6,8,10,12,14,16,18,20,22,0,2,4,6,8,10,12,14,16,18,20,23,1,2,4,6,8,10,12,14,16,18,20,23,0,2,4,6,8,10,12,14,16,18,20,23,0,2,4,6,8,10,12,14,17,18,20,23,0,2,5,7,8,10,12,14,17,18,20,23,1,2,5,6,9,10,12,14,17,18,20,23,1,2,4,6,9,10,12,15,17,18,20,23,1,2,4,7,9,10,12,15,17,18,20,23,1,2,4,6,9,10,12,14,17,19,20,23,1,2,4,6,9,11,12,14,17,18,20,23,0,2,4,6,8,11,12,14,16,18,20,23,1,2,4,6,8,10,12,14,16,18,20,23,1,2,4,6,8,10,12,14,16,18,20,23,0,2,4,6,8,10,12,14,16,18,20,22,0,2,4,6,8,10,12,14,16,18,20,22,0,2,4,6,8,10,12,14,16,18,20,22,0,2,4,6,9,10,12,14,16,18,21,22,0,2,4,7,9,10,12,14,16,18,20,23,1,3,5,6,8,10,12,14,16,18,20,23,0,2,4,6,8,10,13,15,16,18,20,23,0,2,4,6,8,10,13,15,16,18,20,22,0,2,4,6,8,10,12,14,16,18,20,22,0,2,4,6,8,10,12,14,16,18,20,22,0,2,4,6,8,10,12,14,16,18,20,22,1,2,4,6,8,10,12,14,16,18,20,22,1,2,4,6,8,10,12,14,16,18,20,23,1,2,4,6,8,10,12,14,16,19,20,23,1,2,4,6,8,11,12,14,17,19,20,23,1,2,4,6,9,11,12,15,16,19,20,23,1,3,4,6,9,11,12,14,16,19,20,23,0,3,5,7,9,11,12,15,16,19,20,23,0,3,4,7,8,11,12,15,16,19,20,23,0,3,4,7,8,11,13,15,17,19,20,23,0,3,4,7,8,11,12,14,17,18,21,23,1,3,4,7,8,11,13,14,16,19,21,23,1,3,4,6,8,10,12,14,16,18,20,23,1,2,4,6,8,10,12,14,16,18,20,23,1,2,4,6,8,10,12,14,16,18,20,22,1,2,4,6,8,10,12,14,16,18,21,22,1,2,4,6,8,10,13,14,16,18,21,22,1,2,4,6,8,11,12,14,17,18,21,22,1,2,5,6,9,10,12,14,17,18,21,23,1,2,5,7,8,10,13,14,16,19,20,23,1,2,5,6,9,10,12,15,17,18,20,22,1,2,4,7,9,10,12,15,17,18,20,23,1,2,4,7,9,11,13,14,16,18,21,23,1,2,4,6,8,10,13,14,16,18,20,23,1,2,5,7,8,10,12,14,16,18,20,23,1,2,4,6,8,10,12,14,16,18,20,23,1,2,4,6,8,10,12,14,16,18,20,22,0,2,4,6,8,10,12,14,16,18,20,23,0,2,4,6,8,10,12,14,16,18,20,23,0,2,4,6,8,10,12,14,16,18,21,23,0,2,4,6,8,10,13,14,17,18,21,23,0,2,5,7,8,10,13,14,17,18,20,23,0,2,5,7,8,10,13,14,16,18,20,22,0,2,4,6,9,11,13,14,17,18,21,22,0,2,5,6,9,10,13,15,17,19,21,23,1,2,4,6,8,11,13,15,16,19,20,23,1,2,4,6,8,10,12,14,16,18,20,23,0,2,4,6,8,10,12,14,16,18,20,22,1,2,4,6,8,10,12,14,16,18,20,23,1,2,4,6,8,10,12,14,16,18,20,23,1,2,4,6,8,10,12,14,16,18,21,22,1,2,4,6,8,10,13,14,17,18,20,23,1,2,5,6,9,11,12,14,16,19,21,23,1,3,5,7,8,11,13,14,16,18,20,23,0,2,5,7,9,10,13,14,17,18,20,22,0,2,5,7,8,11,13,14,17,18,20,23,0,2,4,7,8,11,12,15,16,18,20,23,0,3,4,6,8,10,12,14,16,18,20,23,1,2,4,6,8,10,12,14,16,18,20,23,1,2,4,6,8,10,12,14,16,18,20,23,1,2,4,6,8,10,12,14,16,18,20,22,1,2,4,6,8,10,12,14,16,18,20,22,1,2,4,6,8,10,12,14,17,18,20,22,1,2,4,7,8,11,12,14,17,18,21,22,1,3,5,6,8,10,13,14,16,18,21,22,1,2,5,6,8,10,13,14,16,18,21,23,1,2,5,7,8,10,13,14,16,18,21,22,1,2,5,7,8,10,13,14,16,18,21,22,1,2,5,7,8,10,12,14,16,19,21,22,1,2,5,7,8,10,12,14,17,18,20,22,1,2,5,7,8,10,12,14,16,18,20,22,1,2,4,6,8,10,12,14,16,18,20,22,0,2,4,6,8,10,12,14,16,18,20,23,0,2,4,6,8,10,12,14,16,18,20,23,0,2,4,6,8,10,12,14,16,18,20,23,0,2,4,6,8,10,12,14,16,18,20,23,0,2,4,6,8,10,12,14,17,18,20,23,0,2,4,7,9,10,12,14,17,18,20,23,0,2,4,6,9,10,12,14,16,19,20,23,0,2,4,6,9,10,12,14,17,18,21,23,0,2,4,6,9,10,13,15,16,18,21,23,1,2,4,6,8,11,13,15,16,18,20,23,0,3,4,6,8,10,12,14,16,18,20,23,0,2,4,6,8,10,12,14,16,18,20,23,1,2,4,6,8,10,12,14,16,18,20,23,0,2,4,6,8,10,12,14,16,18,20,23,0,2,4,6,8,10,12,14,16,18,20,23,0,2,4,6,8,10,12,14,17,18,20,23,0,2,4,6,9,10,12,14,17,18,20,23,1,2,5,7,8,10,12,14,16,18,20,23,1,2,4,7,8,10,12,14,16,18,20,23,1,2,4,6,9,11,13,14,16,18,21,22,1,2,4,6,8,11,13,14,16,18,20,23,1,3,5,6,8,10,12,14,16,18,20,23,0,2,4,6,8,10,12,14,16,18,20,23,0,2,4,6,8,10,12,14,16,18,20,22,0,2,4,6,8,10,12,14,16,18,20,23,0,2,4,6,8,10,12,14,16,18,20,23,0,2,4,6,8,10,12,14,17,19,20,23,0,2,5,6,9,11,12,14,16,19,20,23,0,3,4,6,9,11,12,14,16,19,20,23,0,3,4,6,9,10,12,14,17,19,20,23,0,3,4,6,9,10,12,15,17,19,20,23,0,3,4,6,9,10,12,14,17,18,20,23,0,3,4,6,9,11,12,14,16,18,20,23,0,3,4,6,8,11,12,14,16,18,20,23,0,3,4,6,8,10,12,14,16,18,20,23,0,2,4,6,8,10,12,14,16,18,20,23,0,2,4,6,8,10,12,14,16,18,20,22,0,2,4,6,8,10,12,14,16,18,20,22,0,2,4,6,8,10,12,14,16,19,20,22,0,2,4,7,8,10,12,14,16,19,21,22,0,2,4,6,9,11,12,14,16,18,20,22,0,2,4,7,8,11,13,14,16,18,20,22,0,2,5,6,8,11,13,15,16,19,20,22,0,2,5,6,8,10,13,15,16,19,21,22,0,2,5,6,8,10,12,14,17,18,20,22,0,2,4,6,8,10,12,14,16,18,20,22,0,2,4,6,8,10,12,14,16,18,20,22,0,2,4,6,8,10,12,14,16,18,20,22,1,2,4,6,8,10,12,14,16,18,20,22,1,2,4,6,8,10,12,14,16,19,20,23,1,2,4,6,8,11,12,14,17,18,20,23,1,2,4,6,8,10,12,14,16,19,21,22,1,2,4,6,8,11,13,14,16,18,21,23,0,2,5,7,9,11,13,14,16,18,21,23,0,2,5,7,8,10,13,14,16,19,20,22,0,2,5,7,8,10,13,14,17,18,21,22,1,2,5,7,9,10,13,15,17,19,20,23,1,2,5,6,8,11,12,14,16,19,21,23,1,2,4,6,8,10,12,14,16,18,20,23,1,2,4,6,8,10,12,14,16,18,20,22,0,2,4,6,8,10,12,14,16,18,20,22,0,2,4,6,8,10,12,14,16,18,20,22,0,2,4,6,8,10,12,14,17,18,20,22,0,2,4,6,8,10,12,14,16,19,20,22,0,3,5,7,8,10,12,14,16,19,20,22,0,3,4,7,9,10,12,14,16,18,20,22,0,3,4,6,8,11,12,14,16,18,20,22,0,3,4,6,8,11,12,14,16,18,20,22,0,3,4,6,8,10,12,14,16,18,20,22,0,2,5,6,8,10,12,14,16,18,20,22,0,2,4,6,8,10,12,14,16,18,20,22,0,2,4,6,8,10,12,14,16,18,20,22,0,2,4,6,8,10,12,14,16,18,20,22,0,2,4,6,8,10,12,14,16,18,21,22,0,2,4,6,8,10,13,14,16,19,21,22,0,2,4,6,8,11,13,14,16,18,21,22,0,2,4,6,8,11,13,14,16,18,21,22,0,2,5,6,8,11,13,14,16,18,21,22,0,2,5,6,8,10,13,14,16,19,21,22,0,2,5,6,9,10,12,14,17,19,20,22,0,2,5,6,9,10,13,15,17,19,20,22,0,2,5,6,8,11,12,15,16,18,20,22,0,3,4,6,8,10,12,14,16,18,20,22,0,2,4,6,8,10,12,14,16,18,20,22,1,2,4,6,8,10,12,14,16,18,20,22,0,2,4,6,8,10,12,14,16,18,21,22,0,2,4,6,8,10,13,14,17,18,21,23,0,2,4,7,8,10,13,15,17,18,20,23,0,2,4,7,8,10,12,15,17,18,20,23,1,2,4,6,9,10,12,15,17,18,20,23,1,2,4,7,9,10,12,15,17,18,20,23,1,2,4,6,9,10,12,14,17,18,21,23,1,2,4,6,9,10,12,14,17,19,21,22,1,2,4,7,8,11,13,14,16,19,20,22,1,2,5,6,8,10,12,14,16,18,20,22,0,2,4,6,8,10,12,14,16,18,20,23,1,2,4,6,8,10,12,14,16,18,20,22,0,2,4,6,8,10,12,14,16,18,20,23,0,2,4,6,8,10,12,14,17,18,20,23,0,2,5,6,8,10,12,14,17,18,20,23,1,2,4,7,8,10,12,14,17,18,20,23,1,2,4,6,9,10,12,14,17,18,20,23,1,2,4,7,8,10,12,15,16,18,20,23,1,2,4,6,9,11,12,14,16,18,21,22,1,2,4,6,8,10,12,14,16,19,21,22,1,3,5,6,8,10,13,14,17,18,20,23,0,2,5,6,8,10,12,14,16,18,20,23,1,2,4,6,8,10,12,14,16,18,20,22]},{"__type":"ConvLayer:#ConvNetSharp.Layers","DropProb":null,"InputDepth":20,"InputHeight":12,"InputWidth":12,"OutputDepth":35,"OutputHeight":12,"OutputWidth":12,"Activation":1,"BiasPref":0.1,"Biases":{"Depth":35,"Height":1,"WeightGradients":[0,0,-0.00097808275906739,0,-3.4871343949539889E-05,0.002194008381032936,0.0025964997889599776,-0.0012930231663423096,-0.00024047977208745266,0,0.0020999199437675155,0.0003086367964248159,-0.00052411187738519668,0,0.0044079072701205231,0,0,0,0,0,-0.0061131866885423235,-0.0032668520305990925,0,0,-0.0012058823918464504,-0.0023311374539105884,-0.0073690270449970879,-0.00027157997986415616,0.00020044726644033166,0,0,0.0047374270480048924,0.0013350231490536779,0,-0.01102122130813468],"Weights":[0.088134473883402967,0.079493854907167663,0.086378661284184186,0.088682410540184511,0.086128911991909154,0.083339066395242342,0.084262503929491583,0.08962888994099967,0.074924384452299542,0.087840912522200054,0.076545012516081715,0.074826211402895942,0.059539533738879623,0.082559707634339424,0.07202135854506217,0.0819322753240404,0.081620158857465527,0.081038175020704428,0.08807807271124371,0.087242663025255351,0.069565515942045908,0.079360849858882976,0.085006128023024541,0.077983312997018231,0.082302919771040789,0.07929634332414924,0.069630830677300748,0.076164363667242954,0.094168923071102931,0.077650629371653263,0.072578444361342878,0.07050947705223537,0.077021698387113008,0.080163856594528418,0.058516671882727758],"Width":1},"FilterCount":35,"Filters":[{"Depth":20,"Height":5,"WeightGradients":[0,0,0,0,0,0,0,0,0,0,0,0,0,0,0,0,0,0,0,0,0,0,0,0,0,0,0,0,0,0,0,0,0,0,0,0,0,0,0,0,0,0,0,0,0,0,0,0,0,0,0,0,0,0,0,0,0,0,0,0,0,0,0,0,0,0,0,0,0,0,0,0,0,0,0,0,0,0,0,0,0,0,0,0,0,0,0,0,0,0,0,0,0,0,0,0,0,0,0,0,0,0,0,0,0,0,0,0,0,0,0,0,0,0,0,0,0,0,0,0,0,0,0,0,0,0,0,0,0,0,0,0,0,0,0,0,0,0,0,0,0,0,0,0,0,0,0,0,0,0,0,0,0,0,0,0,0,0,0,0,0,0,0,0,0,0,0,0,0,0,0,0,0,0,0,0,0,0,0,0,0,0,0,0,0,0,0,0,0,0,0,0,0,0,0,0,0,0,0,0,0,0,0,0,0,0,0,0,0,0,0,0,0,0,0,0,0,0,0,0,0,0,0,0,0,0,0,0,0,0,0,0,0,0,0,0,0,0,0,0,0,0,0,0,0,0,0,0,0,0,0,0,0,0,0,0,0,0,0,0,0,0,0,0,0,0,0,0,0,0,0,0,0,0,0,0,0,0,0,0,0,0,0,0,0,0,0,0,0,0,0,0,0,0,0,0,0,0,0,0,0,0,0,0,0,0,0,0,0,0,0,0,0,0,0,0,0,0,0,0,0,0,0,0,0,0,0,0,0,0,0,0,0,0,0,0,0,0,0,0,0,0,0,0,0,0,0,0,0,0,0,0,0,0,0,0,0,0,0,0,0,0,0,0,0,0,0,0,0,0,0,0,0,0,0,0,0,0,0,0,0,0,0,0,0,0,0,0,0,0,0,0,0,0,0,0,0,0,0,0,0,0,0,0,0,0,0,0,0,0,0,0,0,0,0,0,0,0,0,0,0,0,0,0,0,0,0,0,0,0,0,0,0,0,0,0,0,0,0,0,0,0,0,0,0,0,0,0,0,0,0,0,0,0,0,0,0,0,0,0,0,0,0,0,0,0,0,0,0,0,0,0,0,0,0,0,0,0,0,0,0,0,0,0,0,0,0,0,0,0,0,0,0,0,0,0,0,0,0,0],"Weights":[0.0688324510852255,0.04045975567167015,0.050581597912651786,0.0015309935128744474,0.013172497438314829,0.018080981680348621,0.016104821077053928,0.027078552350614626,-0.012807456037303502,-0.0011556694960635344,0.01015077628579485,0.013165297747450974,-0.065030876297239054,-0.048030284421521581,-0.018750515056205598,-0.022069090495966517,-0.0588104645464692,0.038385936516969754,-0.01527861384877738,-0.082436737392967752,0.021960081559296876,-0.054508649325465633,-0.032624363750003452,0.018402886796713973,0.11294431699136917,0.011620261943158234,-0.11477373622422503,0.00021083999233681108,-0.073401441224676831,-0.017860323575530967,-0.044317837651497619,-0.027708350961878476,0.0090020235776175,-0.03270230008059942,-0.0847880151944094,-0.031938358168883504,0.0057240615959533656,0.022585652274646685,0.079389692875087542,-0.024571599533143706,-0.054754646975560907,0.0057727149962410367,0.039008835338975395,-0.00044785467400541005,-0.066714139591939808,-0.043035094118397836,0.099873380214227134,-0.027198975421252578,0.063314300347329766,0.018307089016341534,-0.095835818630874134,-0.067033061680696365,-0.025898969967301691,-0.026270806086674921,0.034299693725358141,-0.032493600871391644,0.025515563568733329,-0.0061772780396340717,-0.013942579614420329,-0.017219831159311191,-0.054200060374673065,-0.015837857787049416,-0.015534759796804139,-0.068686403247524522,-0.023550105680649872,-0.014095689090901547,-0.032136753029579933,0.026419784713684183,0.055010033282416319,-0.050968972212136768,0.054873367180271693,-0.052054249395598967,-0.089599313763413374,0.0067979894469571058,0.049639937879632591,0.011103549574244509,0.023000835794634258,-0.0714132591742322,-0.032907614686797919,-0.048189199802644182,-0.036108685549995724,0.0068025898637388517,-0.034724799962836055,0.034583863794459442,-0.032234078220730211,0.0882084565281166,-0.0323607207059324,-0.030247873102340735,-0.0028758482991046263,-0.0054550596918361543,-0.040279285923219006,-0.076468391859169482,-0.045104178541789046,-0.013832103105929351,0.053547002573328811,0.06978806900509385,-0.034247086231030753,0.021316059311934907,-0.072163031617733145,-0.0180370791527954,0.00781459675087906,0.065428150921247222,-0.013838606560926526,-0.070544913427727229,-0.02291449820281392,-0.0029711882504973317,0.044281237385575246,-0.020598036932828911,-0.0030046294061191613,-0.015522471744688989,-0.10210578502353458,0.037868298534381346,0.0038819126725703305,-0.083136443600476589,-0.0406301622671775,-0.028443214240336925,-0.037239824671232664,0.02751228881032303,-0.0196424705759228,0.015034624008292179,-0.10392267819291959,-0.049332746900643362,-0.11118758637213172,0.027960200845173745,0.0033781455453246131,-0.02085404744848637,-0.043608846338624919,-0.046255973990681362,0.029282841219040116,0.031410757920739905,0.0052411988917302928,-0.074267075486928111,-0.055008977336641236,0.033304193803662549,-0.05383964084725034,0.010698614044102963,0.00012715610508175408,-0.04166748545934245,-0.033296423072657795,-0.037325234066176556,0.059183475144815909,0.013664317098840422,0.042935854871258713,0.035551436864707395,-0.021679058836002459,-0.011417209554563549,0.060320266468072391,0.025316303409033788,-0.048903838685397258,-0.024994664176181416,0.045716316669468383,-0.033603370876558007,-0.021616611170682191,0.023762028062315036,-0.036279447244841244,0.053610684743812628,-0.039380371881911742,0.0009301204993857645,0.053890076263157387,-0.0550527801369329,0.007518422469793098,-0.0071317759964764291,-0.0680964420191629,0.028426365906826179,0.011492996044175736,0.023761254480821128,-0.040300105155003117,0.057487778415687481,0.001078584553474157,-0.023848551448090789,0.032725190193644053,-0.057167823624520192,-0.0054486453315146866,0.082586561185086574,-0.0086553750758882973,0.053987907694606312,0.059466349704437704,0.0045076236514994409,0.039047316047750025,0.016844198576831559,0.077787728168710754,-0.0090136702245232556,-0.04304874046911307,-0.036136247909386264,-0.0673702674883141,-0.011783540364635876,-0.011152360269257101,-0.0515102533521278,0.060798245786668204,-0.089078306666492288,0.010454120188552825,0.054896076918425726,0.0051861562199564228,-0.040484511423549953,0.049896985027924085,-0.0020072339894747909,-0.061324793775269518,-0.0680054015441269,-0.033490570554285656,-0.0033207319422152554,-0.0321472118703104,-0.089986681902627125,0.033572113732905251,-0.025900379904000868,0.036714335341519036,-0.034407242901598883,0.0044116230149175871,0.0033631785652294926,0.0094215622869124379,-0.089793099622745967,0.019619072689531031,0.045181497969434138,-0.1123098376579199,-0.060830782275097389,0.00017697793914694482,0.024620872704703558,-0.066187987961194211,-0.034523147718757745,-0.055257380028277285,0.010741342397409689,0.0071428421032950608,-0.020103039778756375,-0.021470207185231471,0.0067875704605997005,0.046643609125059549,0.023101384818215342,-0.058757277384130224,-0.062069078655538276,-0.031631205077517224,0.058951587876183584,0.016391020970698677,-0.050730288845275993,-0.085583673996618051,0.033704314799106086,-0.041150519773385193,0.017909344798500964,0.033625841439137168,-0.025537661101718657,-0.033627531340152041,-0.027520981122492887,0.0070078816336402311,-0.018319875656312407,-0.0087272740696791671,0.037574794211720768,-0.019723746871072277,0.013929333540518302,-0.0629847503490748,-0.0042509689731864263,0.052129087104489512,-0.037781659537136858,-0.026353149150211391,-0.0374845174209578,-0.0044703968052173405,-0.057120618817874155,-0.035098422300955757,0.026088911424087247,0.036658963453436895,-0.045212690121229727,-0.0527803253437896,0.060426190662081075,0.014121353187951082,0.060892359950456457,-0.013067423435667582,-0.014265624853652332,-0.039255349401048696,0.0039590145812119729,-0.0076151208492338373,0.015448279257149658,-0.042501159100314843,0.027278102707520981,0.073373812305528668,0.098142215252588233,0.0057737956773111629,-0.040836147108706047,-0.014448175368278807,-0.0094732652310156821,-0.018605519380373883,-0.011530582573711559,0.10612518185144383,0.024489061857224076,0.016750746418601629,-0.043522457231179076,-0.075986154480065515,-0.038622762004756422,-0.04026315321516636,0.04032013020064059,-0.02039651404441177,0.08442229131363356,0.01611287691836925,-0.049890550736210029,0.035034770499704673,-0.00075955709727425181,-0.064852296812553459,-0.0021291918943946728,-0.00096562681819546844,0.013117106277964748,-0.045646493584127118,-0.039600272367464093,-0.057132750795115129,0.0071641654421946413,-0.069691794196559936,0.012246114951020543,-0.061054798823187366,-0.0054137660366423875,0.013026872913940137,-0.036578535536230361,-0.036444990304550035,0.023869234856215608,-0.013067188471138524,0.036680111903784132,0.023045712753206993,0.00064225940961255541,-0.035224467721181672,0.0693814936695403,0.0096776659387498212,0.026092594795412118,-0.0020592245542265359,0.022280072055675254,-0.0096735366288993856,0.060429410762068612,0.085382991550544893,0.075619128598687343,0.028703377286492544,-0.0271935925138348,-0.0035353917151250231,-0.0085904335596208043,0.015474881369211919,0.0089019816956424618,-0.05492058342144783,-0.030595077206131437,-0.025529409639092941,0.054490928119774212,0.056789290832379331,-0.061968050928962917,-0.057866194061610608,-0.071332720039486347,-0.00060982392831000548,0.033520370278917487,-0.010698457439595726,-0.022996519616960386,0.053956818237444228,0.009180778916278335,-0.047815713374455796,-0.040609477150766023,0.022370709135890173,-0.017175588890787696,-0.059498582937309023,-0.011365577278481575,0.0795716297913489,-0.041874432384127594,0.016670749052857758,-0.019715131037724081,0.044881745989519294,0.024340563851462393,0.021019551874849027,-0.012789311519853611,0.0597356486482309,0.027286699367461968,-0.054443538477055908,0.023013233273703568,-0.030843902081363148,-0.011166202525250876,-0.0037387527048302013,-0.048011501482665586,-0.09943048410351335,0.091086408262948476,-0.031893747205271293,0.036090776237756264,-0.017931826990704329,0.06587188189074282,-0.018122606868281359,0.081366965778038133,0.036837390103071105,-0.088640732678757883,-0.034525639259047877,-0.0399147376422961,-0.10065754245086843,0.026607521496969783,0.046881235675667231,0.025921173637306904,0.0633634207747617,0.041737537900195125,-0.053442697042030148,-0.084826774400011393,-0.0023222431175346763,0.028408435452775362,-0.031329254330333879,0.041420553243727537,-0.028454250343539413,-0.03631917238278292,-0.0079745229920080429,0.0042716094919765272,-0.021512618835257444,-0.072660995310125071,0.094287613561270814,0.023344243551322988,0.0049333225766666194,-0.040988967294972263,-0.0082275095215641365,0.049376926923732176,0.00073932403507927951,-0.063924314641092717,-0.011662213187206701,-0.05971949521548691,-0.060827508048592778,-0.0672104574399661,-0.067274413956101758,0.0053534683822002976,0.042989052688448763,-0.0029814506222549109,-0.090532940680600846,-0.015261976753629889,0.0045464947687641061,-0.10939349431913731,0.026510026547279669,0.056169979622964723,0.021270173570931014,0.00012031574145517043,-0.030266366317970535,-0.011999034188373963,0.018462078445534172,0.00041699079890429542,0.00898912910813215,-0.017603949003161524,0.034060497789760467,0.045454802592759753,-0.0394848490781442,-0.04202496905368612,-0.050013098432969749,0.011716721034402924,-0.072513669361063016,0.017905216743487811,-0.0066631390906563472,0.058831087537514211,0.012087082432044847,0.033664006144879174,0.025043037871220229,0.080143728744204973,-0.076087017684392161,0.040098393831750748,-0.003641307506713644,0.016266810037445723,0.0693499172000081,-0.0160959180834997,-0.0065547395796634487,0.042227428466700009,0.0019438699708685253,-0.013731609072287555,0.020650204407457434,0.00062174339532376592,-0.016952676023831867,0.024799671752313478,-0.026943758141046725,-0.075089750211158865,0.0866041344458296,-0.02149787397237559,-0.060320892967531882,0.0330300198000165,-0.035097344284324393,0.054818500971159853,-0.035066884815576314,-0.13017552147694009,-0.015368173564943343,-0.041090790620390616,0.0153804902671933,-0.014350267258340139,0.034012507375564112,-0.035424200493228836,0.032937584284729274,-0.09878832652586976,-0.026543612061992343,0.026860128339166515,-0.036331378819708819,-0.055242999764362047,-0.071910467386766291,-0.044274725049240432,0.016693329296279289,-0.035272553030035028,0.018556562421957211,-0.056449484082926986,0.038978083874727391,-0.065180857256261465,0.032498749077308417,0.0080665608578537433,-0.048904317962449227,-0.0726817343106033,-0.0070545560348943843,-0.0071379131441798287,-0.02669232559190754,0.074509911003971155,-0.047893504895048705,0.03543862068482196,0.021467767623669694,0.038768707467801762,0.0740294840862329,-0.070283608423577393,-0.041644502025338682,0.044405422495911832,0.067791707339189322,0.045823386485649764],"Width":5},{"Depth":20,"Height":5,"WeightGradients":[0,0,0,0,0,0,0,0,0,0,0,0,0,0,0,0,0,0,0,0,0,0,0,0,0,0,0,0,0,0,0,0,0,0,0,0,0,0,0,0,0,0,0,0,0,0,0,0,0,0,0,0,0,0,0,0,0,0,0,0,0,0,0,0,0,0,0,0,0,0,0,0,0,0,0,0,0,0,0,0,0,0,0,0,0,0,0,0,0,0,0,0,0,0,0,0,0,0,0,0,0,0,0,0,0,0,0,0,0,0,0,0,0,0,0,0,0,0,0,0,0,0,0,0,0,0,0,0,0,0,0,0,0,0,0,0,0,0,0,0,0,0,0,0,0,0,0,0,0,0,0,0,0,0,0,0,0,0,0,0,0,0,0,0,0,0,0,0,0,0,0,0,0,0,0,0,0,0,0,0,0,0,0,0,0,0,0,0,0,0,0,0,0,0,0,0,0,0,0,0,0,0,0,0,0,0,0,0,0,0,0,0,0,0,0,0,0,0,0,0,0,0,0,0,0,0,0,0,0,0,0,0,0,0,0,0,0,0,0,0,0,0,0,0,0,0,0,0,0,0,0,0,0,0,0,0,0,0,0,0,0,0,0,0,0,0,0,0,0,0,0,0,0,0,0,0,0,0,0,0,0,0,0,0,0,0,0,0,0,0,0,0,0,0,0,0,0,0,0,0,0,0,0,0,0,0,0,0,0,0,0,0,0,0,0,0,0,0,0,0,0,0,0,0,0,0,0,0,0,0,0,0,0,0,0,0,0,0,0,0,0,0,0,0,0,0,0,0,0,0,0,0,0,0,0,0,0,0,0,0,0,0,0,0,0,0,0,0,0,0,0,0,0,0,0,0,0,0,0,0,0,0,0,0,0,0,0,0,0,0,0,0,0,0,0,0,0,0,0,0,0,0,0,0,0,0,0,0,0,0,0,0,0,0,0,0,0,0,0,0,0,0,0,0,0,0,0,0,0,0,0,0,0,0,0,0,0,0,0,0,0,0,0,0,0,0,0,0,0,0,0,0,0,0,0,0,0,0,0,0,0,0,0,0,0,0,0,0,0,0,0,0,0,0,0,0,0,0,0,0,0,0,0,0,0,0,0,0,0,0,0,0,0,0,0,0,0,0,0,0],"Weights":[0.019983454813606926,-0.0013946499302755035,-0.050379233174344,-0.0591212714515476,-0.00928045247647704,0.08687056334678786,0.046741942641431548,0.0015110573490153248,0.00973742797347364,0.01973936425048611,-0.057493835935658565,-0.00040444015627792593,-0.0225633484770469,0.0029113662515034382,-0.064662038712152259,-0.058958962810741138,0.03485819878085715,-0.056042671734312911,0.0074365606997704153,0.01049842855965399,-0.020392041766041442,0.057577792199585712,-4.378026294969471E-05,0.0028226763306161752,-0.014029302720310494,0.088795425271352507,-0.031736322852534457,0.0740387757167405,-0.015140396197674393,0.036478168522561354,0.059173687201621326,0.047842513384099034,0.041000192828543613,0.0060389294869017509,-0.00409147311516268,-0.02186073765604224,0.035483536278295473,-0.055090943689488671,0.061393656365493869,-0.085133878688732789,-0.023598680718523352,0.025265294796056544,-0.050320593130205267,0.0081460354071936289,-0.076119096801766289,-0.0069523593536329467,-0.069625943155481776,-0.006123181404141519,-0.039042046394955732,-0.00639949456135235,0.029184246838055618,-0.0465707043515363,-0.02354939634618659,0.0020677665879335044,0.0669349571632261,-0.072838467199681983,0.042311048352937079,-0.038370451100267905,-0.057525136860250986,0.056031052254252173,0.013345743707775882,-0.027401418850041083,-0.021154905581881964,-0.039781289754843317,-0.01365532268748899,-0.030044160315711919,-0.007958608037274684,-0.033579571189279026,-0.051917056429468388,0.0069086135824954105,-0.010220780065276705,0.077993834690917349,0.024427570080263111,0.013981498774560454,-0.039751014319919058,0.0047680897329373181,-0.030448910180519317,-0.045120752103655674,-0.11193900769058683,0.016758201478313133,-0.00018494952853855386,0.048184000579637724,-0.023927119324595163,-0.067464010881075689,-0.0922301533891087,0.11394232082383513,-0.043438012382606118,-0.082430658213582253,0.049637889451833686,0.02463307377791386,-0.016348431259285628,0.024467700941652227,0.014741697039414364,-0.052294807888019809,-0.0483986371558214,-0.052677538226837524,-0.0328588774242206,0.037769214399962163,0.11920129969177871,-0.040188190617691119,0.048116721326722539,-0.0044734647990014456,-0.071165734252577634,-0.029599623728163275,-0.010696032084660677,-0.057823592224516343,-0.05228342036592417,-0.091753824995804353,0.0014409612564929759,-0.03992373484361729,-0.0097464375822408737,-0.022052797474876838,0.044176470818639076,0.0016367207820741359,-0.028512343467352885,-0.076595839239228136,-0.069355339238367592,-0.10108994288291119,-0.013084084576825961,0.035252715801373666,-0.030307032154981036,-0.071695650140597561,-0.10596467186207098,-0.002927462824993717,-0.0067510433763203507,-0.018140648266451297,-0.075574924078787784,-0.1161171790191215,0.034143870171182082,0.040759591351669837,-0.077372627267822014,-0.01305404548755454,-0.080241730812707232,0.022435866329106286,-0.030295078356761783,-0.026866720545822842,0.0072258487846796988,-0.093893737458497523,-0.012782391877558,-0.056533275077871689,-0.0353844469335559,0.031084920865768917,-0.069986678073229891,-0.054874044037680828,-0.043853287909272294,0.004975290240194081,-0.017026845301752105,0.057745174000176813,-0.037146343833057822,0.0017532800564307263,-0.061705155393946443,-0.015235313242347693,0.017161899380422514,-0.11416089301525111,-0.028195485907482325,0.056700234125922469,0.069311585771958617,-0.017054696289191991,0.033811493563209054,-0.052248803101482694,-0.046140766021125122,-0.033128599017428394,-0.032035457783084052,-0.059744554216862464,0.0010304258517659422,-0.033287893784065305,-0.011437199683762087,0.032354149152417432,0.012412512718543316,-0.047550425792201291,-0.013454438206610896,-0.04905720415896888,-0.0732820018859662,-0.032408682229344309,-0.0044397063788813116,0.0015423788195092062,-0.056374214231055188,0.046651970612128127,-0.082024262509041851,-0.0851535267748867,-0.0067197575482142143,-0.023267443489008697,-0.062215218563902108,0.024615084680222721,-0.043138919889864666,-0.065608832373736,-0.068027468711574265,-0.056842315677898325,-0.024022336594679831,0.054283074607245206,0.04014272480197513,-0.037480974735891313,0.022485846579821368,0.075542181721215615,0.031403373600131727,0.039706574951157432,0.036969908753126841,-0.03611639596862444,-0.0044664820318882107,-0.11186575815481996,-0.013691370063907563,-0.02074948663688082,-0.038561859118600682,-0.032878927740371211,-0.016359332589292092,0.093988590679956838,-0.068661037343350065,-0.074572911964414679,0.046287990526991125,-0.030842130668983541,-0.10833181937680184,0.055208139263681372,0.011489540759249529,-0.062261066367332946,0.032397310437620626,0.017342337116197114,0.021556602688315166,-0.043713012195317431,-0.04533965765435,-0.033684468982403654,-0.069332034183002753,0.085256684344084052,0.078378481402920377,-0.048336169486089563,-0.0057487116725036674,0.032296989646260939,0.048589345134153,-0.013531525825311638,0.0545632473730165,-0.038374753700126531,0.045461897799573561,0.0622306933722108,-0.023388448226547207,-0.081885027283895392,0.044615499604980915,-0.043583919829443089,0.020905098992351854,0.00019804614309162157,-0.078368341156804772,0.053811662484897271,-0.054200084387646313,-0.067741079655383341,-0.0061510805573288269,-0.032326814174160723,-0.012761455822653704,-0.0029438556795758708,-0.011529500607299978,-0.0736507864764792,-0.08083129339587343,-0.059579120697982275,0.019615409553017858,-0.020118709993636068,-0.021189707852316293,-0.064992970622278337,0.0066572494575290013,-0.047594577497548474,0.024899481042676613,0.039494049817724641,-0.072900394327212389,-0.00058315330281765506,-0.10867281340872269,-0.061707004681479369,-0.01899146188710597,-0.0056403093612126965,0.0088074341615775736,0.08041015101605252,0.10013814330786754,0.037002779206631295,-0.037697019970937544,-0.042267742003783713,-0.041815875808345754,-0.00086174045896395164,0.019615340924949386,-0.03357408078496793,0.0094359501361640057,-0.018189324377244839,-0.0407739270430364,-0.0069717256800446679,-0.080030778569070787,-0.049913008950549717,0.11640076295018456,-0.028559682284093061,-0.014858807566301514,0.061166374615596229,0.0040853175781384171,-0.0630102724123028,-0.060006365349508435,0.028531007947426839,0.0506144233019396,-0.0041087866680097548,-0.011513807144236478,0.018724035695533239,-0.0064253536011057016,0.0029366664962398462,0.051428507536893639,-0.016787666881040653,-0.032026186645335721,-0.015860666675590829,0.016024369765321254,0.054913610013545736,-0.000193889511875748,-0.045043280312996946,0.0014170122257949314,-0.092393680322982785,-0.0040142354459565639,-0.060210193953075031,0.014786461113417885,0.039014045903712179,0.0058057739924411451,0.0048445054403202159,0.032299543552611241,0.011526386604769661,0.050614180982049305,0.0038714517026182558,0.021743959722594887,-0.083900175522537826,0.00477223636879624,-0.033231780388885239,0.077196640606747843,0.077194964990155865,0.034701020299113559,0.048405194597284852,-0.037635132972783654,-0.045697388259382486,0.052632510694754685,0.029252612412263308,-0.063764620978090214,-0.10887268462718884,0.025336198578385882,-0.068039034452817629,0.022542139341829831,0.050806158898450804,-0.07489177764205085,0.048226839993974778,0.0054614850515576612,-0.0028852740948318452,-0.066193433723251635,-0.018844900178670129,0.041156709654226478,-0.013419407145581298,-0.0063512590688695053,0.063145720298008551,-0.034318532504597841,0.024592303971805129,0.0096287825070212781,0.017640226100249706,-0.021685524345276961,-0.047966513357037048,-0.069857270274535324,-0.04505107126664485,-0.0918827928569639,0.038022954012022589,-0.0016774028269762075,0.034739478763075468,0.01287218082853675,0.0092420226950805651,0.055674647685639414,-0.078464346465003124,0.056973686678327584,0.042336930530307876,0.054167473602007285,0.0358540728383054,0.027669940337653125,0.034573108923506783,-0.048987715810397361,-0.0093467152697037127,-0.026673921411131896,0.085409853996816984,0.022962062804039604,0.0061019870267680146,-0.0019417438242404035,-0.041823709459066022,0.0692076559624061,0.022125635283627317,-0.016747788049308238,-0.080468145433729,-0.0067168095822487022,-0.077419381879376151,-0.017373968614633375,-0.042029775887009145,0.12584126634147769,-0.030279583747474966,0.023112272488426032,-0.031975228216337144,0.017993727627517629,0.018941417034323841,-0.056264821638025223,-0.12118685202513607,-0.02193567347754145,-0.0017897903711231863,-0.040744766020988678,0.079606107306658763,0.009352744182275774,-0.037891256766896322,-0.01109781823702443,0.059101388978007992,-0.015517080773509885,-0.015559751570573516,0.058891403138951443,-0.033021688492555379,0.012241835996849393,0.0058729403480755251,-0.074603465053696319,-0.014204759215429736,0.032512057781812626,0.011271074318889976,-0.0582917362626881,-0.11647269838812215,-0.0655024807663305,-0.031044009344741476,-0.0026736963161879419,0.010531658638027817,0.039611348175126446,0.0010524180039130186,0.043447569279433863,-0.058305025141196551,0.0805594940118183,-0.14430681069270918,0.0011170051931181084,0.13463164306600503,0.035757866622025389,-0.025136930713565837,0.013592518395671053,-0.055776930503837155,0.056241749146761361,0.020901579374231066,-0.090232683618426457,-0.026145748965129237,-0.10635701062186223,-0.10567652899815182,-0.094555046729615747,0.02207743337474339,-0.029755202056457375,0.085905855191758473,-0.0016688819531620034,0.031271696843303921,-0.031248783799808763,-0.10783423109681097,0.12266309643111027,-0.0085597456393934589,-0.086910664752621561,-0.076796542000999432,-0.033822289844987453,0.0679003248469079,-0.0055586828466582944,-0.046475259764461624,-0.028628650724225761,-0.025348540991178795,-0.037882755231606641,-0.058896123813443751,-0.052108531233289318,-0.0045979953738419068,0.062710713843262683,0.071939056855836445,-0.00973657391060251,-0.0327491640335962,-0.036320034346924178,-0.072663291171648534,-0.030458497870744027,0.02708673880595161,0.0031900617524167237,0.0098206237126389484,-0.039016255605183361,-0.03862894553244911,0.053199886736878019,-0.018914909775895744,-0.070258772854047455,-0.070613561703279482,-0.087305433306203467,-0.054418308003128843,-0.059489830715642712,0.12207850118512886,0.029378667402507927,0.10831570518689257,-0.039219468302739528,0.046806853639519787,-0.0043195921084253552,-0.02083152063196804,-0.076268146477345533,0.035034165350561051,-0.019723791714792788,0.14101606545315532,-0.12328095382800888,0.10679003483461774,0.0589990808637913,0.045204899121890595,0.031575472427388514,-0.011696706669849363,-0.0090703733210808178,-0.023387231797926466,0.0057854708249076908,0.093314031601100023,0.0686362506710566,0.082145773530348382,-0.001904203003270367,-0.017926311968954202,0.083333599097417541,0.028286698940198838,-0.0032068196227725263,-0.047918424478682158],"Width":5},{"Depth":20,"Height":5,"WeightGradients":[-7.5712410614160205E-06,-0.0013682584760734502,-0.00024242535262724937,-0.00042604821091433092,-0.00038898398401011571,0,-0.0011237558570415477,-0.00038382902219566656,-0.00038113782008759807,-0.00036798697777659943,-0.00017916287502352279,-0.000566907358563172,-0.00045491258800536963,-0.0010195072144971581,-0.00043533187632532108,-0.00057808409842027549,-0.00035839003658609346,-0.0012431672588197129,-0.000927536845368931,-0.000316431808564934,-3.81263107618007E-05,-0.00090747003625119948,-0.000566915411482124,-8.2371205289141075E-05,-0.00045880905308957686,0,-0.001140763338265954,-1.5166802645229149E-05,-0.00042031921871255176,-0.00037781050454383235,-3.5282517024259186E-05,-0.00068659521255460209,-0.00031817690319917445,-0.00026363486632308744,-0.00032139653404900066,-0.00035768882437766492,-4.4663605935180384E-05,-0.0011137882181330504,-0.00080274898076454493,-0.00012793535782231204,-0.00010586519201386293,-0.00054328038819906126,-0.0005840480210330414,-0.00014201057693684935,-5.0040339438462949E-05,0,-0.0010012746557863878,-9.5249969967361762E-07,-0.0001477933071535277,0,-1.9813511974529925E-05,-0.00019619902549828047,0,-3.7419261030455174E-05,0,-0.0001019611642117831,0,-0.00075048717448476928,-0.00056549757100137388,-0.00015831739921335784,-0.00083696523623081243,-0.00072568919645788908,-0.0012948436279421336,-0.00038776070348053979,-0.00035628622743642639,-0.00015443306570750204,-0.0007381414243405784,-0.00040415613780327424,0,0,-0.00054744717713174976,0,0,-0.00042635927838199634,-0.00040730766113685233,0,-0.00013061762587859274,-0.000195765031394707,-0.00032963657610533907,-0.00012486003337385722,0,0,0,0,0,0,0,0,0,0,0,0,0,0,0,0,0,0,0,0,-1.4048763149826803E-05,-0.00067614877542014943,-0.00036291140999847695,-5.2555748787439626E-05,-0.00016038400373749744,0,-0.0010013549915137499,-0.00048144502553594494,-0.00045643219760926608,-0.00048734522662563918,-0.0007159441227124005,-0.00097094140663003944,-0.001188292899871422,-0.00045840705209126547,-0.00043834716934418918,-0.00035495377430395567,0,-0.0013503454945754066,-0.00074761683864718316,-0.00031259382205336094,-5.1681845575126589E-05,-0.00035499298932753026,-0.00049491138575671206,-9.4442838623322818E-05,-0.00029807505712899622,0,-0.0010345035319927419,-0.00011461455901386177,-0.00046236629828690339,-2.467938083171058E-05,-0.00036472292532811659,-0.00074369273791478788,-0.00025504704070356492,-0.00033630366644701328,-0.00022351769781410238,-0.0004392263044360903,0,-0.0011157492432924574,-0.00085701814020420846,-0.00024320376533748295,-6.8985129714142047E-05,-0.00026914944367988644,-0.00056541064842197824,0,0,0,-0.000946677570456294,-7.3790696464588373E-06,-2.2757101733075525E-05,0,-8.7846576930115429E-05,-1.4986583266025022E-05,0,0,0,-9.5419218301678481E-05,0,-0.00064564640529606336,-0.000598336116090389,-0.00013833407621184962,-0.00083696523623081243,-0.00072568919645788908,-0.0012948436279421336,-0.00038776070348053979,-0.00035628622743642639,-0.00015443306570750204,-0.0007381414243405784,-0.00040415613780327424,0,0,-0.00054744717713174976,0,0,-0.00042635927838199634,-0.00040730766113685233,0,-0.00013061762587859274,-0.000195765031394707,-0.00032963657610533907,-0.00012486003337385722,0,0,0,0,0,0,0,0,0,0,0,0,0,0,0,0,0,0,0,0,-3.0858818952341348E-05,-0.00034411827219386004,-0.00034171339334257786,-2.7689712157729921E-05,-0.00012086161667077808,0,-0.00089800253653019263,-0.00038221941422668631,-0.0005023225322354658,-0.00031344538396801621,0,-0.0010543569865167962,-0.0010873491262074566,-0.00042004409813155676,0,-0.00059383612748944428,0,-0.00077233581820266585,-0.00088139459542690523,-0.00021867291813277141,-0.00011786288263907109,-0.00044626407615854142,-0.0005746179963589652,-2.863450084983242E-05,-0.00016106669342936343,0,-0.000973785460467879,-1.7237126259701226E-05,-0.00024153821657409204,0,0,-0.00068718558707150652,0,-0.0002572412909018721,0,-9.1815113316255875E-05,0,-0.00097301591377110287,-0.00092144212225986387,-0.00014783615813569376,-6.8985129714142047E-05,-0.00026914944367988644,-0.00056541064842197824,0,0,0,-0.000946677570456294,0,0,0,0,0,0,0,0,-9.5419218301678481E-05,0,-0.00050247201769969545,-0.00048080411693800164,0,-0.00083696523623081243,-0.00072568919645788908,-0.0012948436279421336,-0.00038776070348053979,-0.00035628622743642639,-0.00015443306570750204,-0.0007381414243405784,-0.00040415613780327424,0,0,-0.00054744717713174976,0,0,-0.00042635927838199634,-0.00040730766113685233,0,-0.00013061762587859274,-0.000195765031394707,-0.00032963657610533907,-0.00012486003337385722,0,0,0,0,0,0,0,0,0,0,0,0,0,0,0,0,0,0,0,0,0,-0.00036939913885504993,-0.00027622723090559557,-2.7481104968438723E-05,-0.00032946421005802096,0,-0.0010657649428282624,-0.00033496844022701114,-0.00068191279828076681,-0.00061885768115922733,0,-0.0011942052072730339,-0.0013093024395572986,-0.00059449206116804119,-4.6920027389496207E-05,-0.00086757880797873007,0,-0.0010714669761275274,-0.0011664261028532976,-0.00040365203667745426,-3.0858818952341348E-05,-0.000381587860899426,-0.00062616690164553628,-1.9750339837787182E-05,-0.0003699124238818372,0,-0.00084962177628105544,-1.2275764624568495E-05,-0.00059576670369784019,0,-2.9210386241753628E-05,-0.0011475623314963119,0,-0.0002385751448097126,0,-0.00017176118847570028,0,-0.0013261906088384179,-0.0010528883724292186,-0.00018503914969662344,-6.8985129714142047E-05,-0.00026914944367988644,-0.00056541064842197824,0,0,0,-0.000946677570456294,0,0,0,0,0,0,0,0,-9.5419218301678481E-05,0,-0.00050247201769969545,-0.00048080411693800164,0,-0.00083696523623081243,-0.00072568919645788908,-0.0012948436279421336,-0.00038776070348053979,-0.00035628622743642639,-0.00015443306570750204,-0.0007381414243405784,-0.00040415613780327424,0,0,-0.00054744717713174976,0,0,-0.00042635927838199634,-0.00040730766113685233,0,-0.00013061762587859274,-0.000195765031394707,-0.00032963657610533907,-0.00012486003337385722,0,0,0,0,0,0,0,0,0,0,0,0,0,0,0,0,0,0,0,0,0,-0.00079201567677728056,-0.00042031007705685018,0,-0.00012981221721420283,0,-0.0012400565417721233,-0.00023403142019317962,-0.00047910331995921487,-0.00028614042043423457,-0.00012362012985602208,-0.0015274318480661404,-0.0012774638062573028,-0.00037102724979973278,-0.00014274345630044646,-0.00038452571293034929,0,-0.0010672377646940958,-0.0008271509909195192,-0.00044503532809961257,-7.9956760229877455E-05,-0.00041223715445029964,-0.00060333564126227677,-7.64405052623734E-05,-0.00024125712764656873,0,-0.0010341881737737208,-9.3323671576684672E-05,-0.00022136655715710769,0,-1.7912921485505092E-05,-0.00049530658166878718,0,-0.00027219874539486722,0,-0.0001946116049652148,0,-0.000905058258123252,-0.00093945526842838516,-0.00026928192836305891,-6.8985129714142047E-05,-0.00026914944367988644,-0.00056541064842197824,0,0,0,-0.000946677570456294,0,0,0,0,0,0,0,0,-9.5419218301678481E-05,0,-0.00050247201769969545,-0.00048080411693800164,0,-0.00083696523623081243,-0.00072568919645788908,-0.0012948436279421336,-0.00038776070348053979,-0.00035628622743642639,-0.00015443306570750204,-0.0007381414243405784,-0.00040415613780327424,0,0,-0.00054744717713174976,0,0,-0.00042635927838199634,-0.00040730766113685233,0,-0.00013061762587859274,-0.000195765031394707,-0.00032963657610533907,-0.00012486003337385722,0,0,0,0,0,0,0,0,0,0,0,0,0,0,0,0,0,0,0,0],"Weights":[-0.010411393905376425,0.03662047314972533,-0.046916639096969158,-0.014810059643786656,-0.054450576781131195,-0.012584351530640038,-0.033464514932305012,0.027461512724417991,-0.047316641943976591,-0.052512216626878293,0.0084352565030108052,-0.13628238706288379,0.00248219931743085,-0.0068895511608253416,0.033316668270416509,0.024203953365405713,0.0041755561899129105,0.029648276374093729,-0.014261074757064091,-0.0026342434377079477,0.039373525936647835,0.0886163036546245,0.022513860442621079,0.05371457607437928,0.071321523653839577,-0.063909034551495283,0.10511581490819678,0.0692329612987135,0.0083828177632756275,-0.021666184004139291,-0.041521499922900745,-0.0707420138422733,-0.040927371528319142,-0.12770622816979907,-0.0077941816810378015,-0.0076453620334822059,-0.057071124664020187,-0.026755220752733191,-0.019898123438144372,0.009163557908529513,0.014939864584595064,-0.022407478054140638,0.030730912518211889,-0.0046135040635421056,-0.040686324791902789,-0.062888721745179663,-0.067518044015419568,-0.035396274164255358,0.049972670125984817,0.0040192454865313086,-0.055139323491151374,0.00792099592867778,0.011952180877246414,-0.036194316161334,-0.0090199961942613715,0.005552907941693554,-0.12506836353792258,-0.030539802608883556,-0.022893482926120638,-0.033005444688949288,-0.049574350938901279,0.014137785069191843,0.04766287787966815,0.048139654877519415,0.038116763886368782,-0.0081855592576569828,-0.035352941014809826,0.065565378818195866,0.015571601892773431,-0.012271573866016374,-0.0051980455502381112,-0.03967683012459626,-0.00048896924494211294,0.023653001717033967,0.013622072407817976,-0.035593422974101209,0.10658334402116332,-0.028493408696721595,-0.054163117234866394,-0.017033973134805782,0.0068514338316149354,-0.034091597056542446,-0.014176882737803173,0.072101135812683736,0.028759103524349062,-0.019832106078838209,-0.026647922544091766,-0.094735947614345575,-0.0021379964747950627,-0.067010036579996157,0.023738301362028955,0.026539840660352212,0.039460826649766925,0.095221951537487984,-0.00407336142006878,-0.10709541267252022,-0.049957891294300442,-0.014470588434123098,0.021461509078926556,-0.071097262714395232,0.0048278966496003951,0.065143012792877236,0.021814593745166574,-0.080366112018898178,-0.031624639633474921,-0.024399737540752347,-0.0075182364659696615,-0.053632702054443246,0.080538469965826309,-0.11944175341783618,0.052462250728710413,0.068723460817045973,0.05560573038237715,0.0013393581269154084,-0.012878739330194178,-0.013537423322338552,0.0079343881346124849,-0.013581787025164823,-0.0648699112711336,0.031943758952762615,-0.018939130689800389,0.087128722185273871,0.0067708429509414445,-0.11248540462651466,0.084847365247191248,-0.043270805927165847,0.026729952452855036,-0.071890821974191457,-0.039460813226315838,0.051587636770618214,0.065064785093622124,-0.010618764572786852,0.032379131676849658,0.079463485405449286,-0.05273799240907924,0.0041310026107221967,-0.022207794180231239,-0.013962449194129742,0.026522428652133022,0.00977134315248034,-0.02246782464750573,-0.019482058225595456,-0.0065124990082236506,-0.043532778788444922,-0.07523445629067238,-0.073300227673256751,0.0060152907130998894,-0.039403810727239363,0.0013469409481952849,0.016779055544665987,-0.02104032715466659,-0.05636661989949638,-0.017337851840998297,-0.020403782243550786,0.0297045277442576,-0.071080739134474241,0.042055793551067408,-0.013715374304000685,-0.017563090306820548,-0.011575520624652265,0.026655523193824169,0.0318157923641814,-0.084813371211461333,-0.093624925415982857,-0.037137813115134373,0.0042826815339935646,0.0060840485616304538,-0.079008879789640746,0.0050799838438731724,0.051173089731995171,0.047705001199834292,0.048023572401971165,-0.009665581665396392,-0.01437598702227658,-0.0037963077476244455,0.037995785607220875,0.01741404693351422,0.00017834423521714132,-0.07488355150855909,-0.0055143689904160768,-0.0974588240405129,0.0489572663893722,-0.021518631704486445,0.031835547052823557,-0.016050352679063667,-0.017205124151795762,0.015741531762105038,-0.020298455981680542,0.0057613574757602,0.016490766056120609,-0.0083191629989717488,-0.01677854043268262,0.036939248955586257,-0.052863655834540349,0.0079331884189701787,0.015912665080619889,0.0043063115805470759,0.036250335907862967,0.07831895855154844,-0.0339723690193075,-0.010368204539419246,-0.04533243875471181,0.037065023038086009,0.0023945866647303031,0.030890956567672389,-0.052366425134186247,-0.02067215554109891,0.0016500116181968486,0.034538688246590094,0.088092291921336913,-0.088766346924615352,-0.009475901130525502,0.054585461333190616,-0.05522887383902729,0.01830236751638771,0.00054171657578705489,0.028775953674230862,0.010070520741699739,-0.0086203704999615847,-0.046079729987031769,0.045539995988303029,0.029265874056745245,0.076969879211443951,-0.06699499501263588,0.051109163943624539,-0.032158326931396322,-0.0092653005865002934,-0.097319665660840382,-0.0083292017817392667,0.0057523089577045062,-0.038397437717641932,-0.052546855360971791,-0.051882608984285795,-0.0020109142743704473,-0.057588668731911971,0.045758327087226013,0.015590524722527409,0.073330276605718864,0.028873223600448084,0.0052148347420562392,-0.0081545763148420779,-0.0444557372147215,-0.0926368354016727,-0.027031765603899183,-0.072404536344192361,-0.0092625297383865778,0.02430302834965065,0.016688078725098806,0.066695664454458667,-0.064072764572389349,-0.066924068062168038,-0.0033352715695198305,-0.059839632014776573,-0.064363840583333221,-0.051548595960999276,-0.021723187616850898,-0.058410360229759081,-0.024740131221326386,-0.041501472218070955,-0.046186450169793593,-0.0622435909315423,0.0055383308780380955,-0.052272432027048087,0.015318714962484929,0.016623748623139784,0.050492411631856318,0.00369860285572653,0.02879309675274791,-0.042381979188048487,-0.028984617010180055,-0.10256653912871372,-0.12051608391346713,-0.083718303807216246,-0.057529294610255445,-0.033497761223132687,-0.1208595496114275,0.039625227004068835,-0.052308698663208163,-0.0029562520352135195,-0.077232769318524311,0.017164459664418562,-0.064415451099688353,0.026043828633531232,0.030165609316133057,-0.0042173654650465228,0.029458030186903367,-0.099607633175034765,-0.032530117500002009,0.0074104711302695348,0.013393036295400139,0.036819162060860375,0.0077354593081951162,-0.024005516188031425,-0.024287462833127747,-0.043260734762805474,0.044944529340239694,-0.018388219316197461,0.019984770452298021,-0.058146094748024825,0.0046648280114495212,-0.014158922115815041,-0.055774963312473017,0.00055698826681597731,0.02419841551469842,-0.031608423645074935,-0.0077201527631052492,-0.030070890856068976,-0.025803080466057709,0.087531391532325087,0.020251258823778966,0.00813203258034461,-0.057811238713290192,0.087748513851206758,-0.084628667354407341,-0.052010950267631251,0.036984656164332885,0.037490830915364141,-0.012925428989483314,0.043878982550817375,0.022701383911893257,-0.032819890447079322,0.044931249937235455,-0.079030620460137577,-0.0083336109462954916,0.029208135030563361,-0.0063232623666492765,0.006452487690681654,0.0056059923420474621,0.022496822947159791,0.0397765170812438,0.048687727435735371,-0.077286769915521469,-0.038368171664355695,-0.012855712804273252,-0.0025893454139271814,-0.049980356138213826,0.020619013077605487,-0.0087948356627539984,-0.04444498275491323,-0.063275692915582937,0.077919362608970033,0.046330194253495535,-0.015664094907838582,0.0033614573767029431,-0.074579941995698049,-0.037436613420823,0.042463797530662269,0.032454730978257552,-0.11286467114219231,-0.022531079314233433,-0.04076091710022433,0.008122376620333804,0.0095988656068788057,-0.005473256987624955,0.0068221321246198108,-0.072444153267812311,-0.10598236189675434,0.027537774046450216,0.055519610075831179,-0.077979134645349113,0.032080357632058569,0.025767996503284717,-0.0081830532125183354,0.0035661295719954258,-0.01807481534972066,0.011878684889045955,0.016375233134477783,-0.017630623260420732,-0.00062326359701293018,-0.08232621170324525,-0.012520909872652843,-0.026471023011856252,-0.0065363254391679441,0.005139952630446594,0.051633943536666664,-0.039952891392225715,0.018974195424123156,0.11877439123021295,0.058405327519547662,-0.0690552836201741,-0.084662631472074715,0.045177325541969404,-0.0064453156695965042,-0.011793988861098528,-0.017003237934366349,0.015008991050489404,0.026829164997089993,0.047679386213747357,-0.071518779845935521,-0.11647576629072171,-0.07094987000864536,-0.041999846978682955,0.052040298230389082,-0.063997995148019821,0.02754603211564146,0.00046046837462589618,-0.00065000136815074414,0.036596745826259935,0.018035050504002774,-0.028416425335439675,-0.0036601968518280123,0.033116651220301795,-0.090457003789640236,-0.0033960180485936679,-0.019701873927431023,-0.076756951134559784,0.0768990634835149,0.013026094917501552,-0.026514781496667656,0.012081040160409883,-0.027308050070057488,-0.02863613355345225,-0.01522219663441945,0.011655194147112019,0.02319380866106615,9.3447792615237741E-05,-0.063839806659,0.0344310776974031,-0.035351726889247523,-0.046686056884219611,0.026446113558408705,0.039021036303826376,-0.043454534106219175,0.0068712808421775382,0.01517470322234005,-0.053584555337379852,0.00644174526372146,0.076291939774660936,-0.034623516803552627,-0.0695391727581894,0.045524006140137706,-0.0073879604326410851,0.014713010081933292,-0.044011942995883381,-0.034346920294137322,-0.040641341957322948,-0.076532567732043574,-0.084227973120028457,0.022574630062824921,-0.033975721548400124,-0.13789165496875863,-0.0465500985964232,0.005829359329332027,0.01656653359229671,-0.0057953293808052954,-0.025470741038655372,0.052021418201137232,-0.038957392162252594,-0.010181922546778,-0.0024187583614105209,-0.032029727508250221,0.0043338960363405827,-0.099404875054210043,0.0012268455064477235,-0.0092586090176404214,-0.059412467925965086,-0.054177966198957872,-0.0029619164003217152,-0.0030166599125812008,-0.0072713868977874463,0.021943541159623693,-0.0047312926755641522,-0.0064358223221686953,0.091501265626135267,-0.0039714060749404395,-0.027180096155598903,0.063826584996260219,0.06662450387377597,-0.014208622090544153,0.010976334840426082,-0.058895389736265145,0.012241033982167511,-0.120696341348242,0.047636972207635249,0.0712659203436677,-0.012249183206302082,-0.0734336334912354,0.03294945664704476,-0.027370340813580647,-0.011928778844319355,-0.029958876581110079,-0.11645037522904563,0.0028238952667014139,-0.069989264999645417,-0.00984219666155585,-0.057685077011935725,0.003715124426530182,-0.063497909952768952,0.018301175363278448,0.040669842739202926,-0.0723077169935166,0.020844320062667655,-0.014212911480864537,-0.0753165285573514,0.088506714874576078,0.034388408163510978,-0.031918537972438293,0.04434085607856305,0.054830626318727156,0.010095354877580769],"Width":5},{"Depth":20,"Height":5,"WeightGradients":[0,0,0,0,0,0,0,0,0,0,0,0,0,0,0,0,0,0,0,0,0,0,0,0,0,0,0,0,0,0,0,0,0,0,0,0,0,0,0,0,0,0,0,0,0,0,0,0,0,0,0,0,0,0,0,0,0,0,0,0,0,0,0,0,0,0,0,0,0,0,0,0,0,0,0,0,0,0,0,0,0,0,0,0,0,0,0,0,0,0,0,0,0,0,0,0,0,0,0,0,0,0,0,0,0,0,0,0,0,0,0,0,0,0,0,0,0,0,0,0,0,0,0,0,0,0,0,0,0,0,0,0,0,0,0,0,0,0,0,0,0,0,0,0,0,0,0,0,0,0,0,0,0,0,0,0,0,0,0,0,0,0,0,0,0,0,0,0,0,0,0,0,0,0,0,0,0,0,0,0,0,0,0,0,0,0,0,0,0,0,0,0,0,0,0,0,0,0,0,0,0,0,0,0,0,0,0,0,0,0,0,0,0,0,0,0,0,0,0,0,0,0,0,0,0,0,0,0,0,0,0,0,0,0,0,0,0,0,0,0,0,0,0,0,0,0,0,0,0,0,0,0,0,0,0,0,0,0,0,0,0,0,0,0,0,0,0,0,0,0,0,0,0,0,0,0,0,0,0,0,0,0,0,0,0,0,0,0,0,0,0,0,0,0,0,0,0,0,0,0,0,0,0,0,0,0,0,0,0,0,0,0,0,0,0,0,0,0,0,0,0,0,0,0,0,0,0,0,0,0,0,0,0,0,0,0,0,0,0,0,0,0,0,0,0,0,0,0,0,0,0,0,0,0,0,0,0,0,0,0,0,0,0,0,0,0,0,0,0,0,0,0,0,0,0,0,0,0,0,0,0,0,0,0,0,0,0,0,0,0,0,0,0,0,0,0,0,0,0,0,0,0,0,0,0,0,0,0,0,0,0,0,0,0,0,0,0,0,0,0,0,0,0,0,0,0,0,0,0,0,0,0,0,0,0,0,0,0,0,0,0,0,0,0,0,0,0,0,0,0,0,0,0,0,0,0,0,0,0,0,0,0,0,0,0,0,0,0,0,0,0,0,0,0,0,0,0,0,0,0,0,0,0,0,0,0,0,0,0,0,0,0,0,0,0,0,0,0,0,0],"Weights":[0.065151581498444633,-0.086519668616012138,-0.11227525142103485,0.080695454452071866,0.0059837106822388537,-0.01160945052479395,-0.07232501655952818,0.0073627762931094765,-0.046803170925782935,0.002500815672463793,0.00883925527404746,-0.0056687898100754777,-0.035265300567831261,0.050228428952547886,0.0052289402547778452,-0.091030742550162275,-0.089160778088823681,-0.045307160554953221,0.012746719424985646,-0.032101690794016757,-0.039715692245792591,0.098852427300424581,-0.010226109191681224,0.039500211046232081,0.0062388650729211332,-0.024853479945013267,-0.0969177344545915,0.020777380118964038,-0.099443285899162251,-0.023885142695299996,-0.035421018143509252,-0.043997530722222532,-0.060804018993174579,0.044684992787008375,-0.012770004399124846,-0.010185797975129642,0.021011004646472806,0.016854611243050491,-0.014209307596720526,-0.0315259566779834,-0.072252327310631845,0.0217854887733305,0.00449020065926354,0.06943054376512299,-0.021887852953571606,-0.046617356368508917,0.015554149359444911,0.13781909239980847,0.0087284397541377082,-0.0543235735643579,-0.025479834938073567,-0.017621754642893953,0.042305022825325694,-0.044872407160073804,0.003430859847546569,0.01282624559889175,-0.052550992728716876,-0.004981246059621738,0.0064093635707186871,-0.0085150077249104422,-0.026693430838954032,0.005687903395322786,-0.063875866334600614,0.039457305061226945,0.0034117098701572481,0.028200297228189827,-0.094457063796324056,0.057407507057034117,0.047580625304783672,-0.0491629917347751,-0.0051207568614676218,-0.03090735062885,0.020486929308646238,-0.051825439606395837,-0.026793725341826322,-0.050715138148194325,0.014704519565188663,-0.051492157531345312,-0.0004033687355042779,0.061929773070558192,0.02275942422640484,0.00012247823491433758,-0.051096254635173616,-0.0010694910538198363,0.00041713261536018123,0.0073291172470512532,0.06407920620252118,-0.051169791103675796,-0.027892693953488302,0.0068983421612209524,-0.020147604197304953,0.054021432986889904,-0.063739529863412317,0.052178805844206193,-0.053574296041510767,-0.0038026774479572889,-0.035931482923535651,0.010522409032974212,-0.040498327849483894,-0.032167379035292619,0.053315541313639719,-0.0905668175218233,0.0095218025356219923,0.0033284550675273103,-0.025939955618111417,-0.053918088979790807,-0.010951745401078185,-0.094926959504982922,0.0018144065696163699,-0.0072341140471738627,-0.047052438986432972,-0.029955999088855143,-0.065707625026736924,0.004482835203837153,0.044630145080260433,-0.022114828207746955,0.043213047842478029,0.044859476848338138,-0.01646773289938127,-0.0033216680306617529,-0.075161203902544646,-0.0084737044851205673,0.074336503373491486,-0.027905680120178831,-0.014981309355685125,0.009974665387850459,-0.11502542295970306,-0.022262668216372086,-0.026022119901924698,-0.032360131227875941,0.034833901815256182,-0.06325551914631454,0.067103958273848047,-0.0866388091466952,0.042723818050412851,-0.0586557868609927,0.009248526547357595,0.010081137619920822,-0.063933732383062172,-0.026007898584316288,-0.13238457329347833,0.085957990128835107,0.049564771607331505,-0.018046610013381831,0.014353110777269966,0.00054045780895510293,0.026312232963307071,-0.022621759124355593,-0.090047737289208632,-0.059069164464001747,0.061143756283566615,-0.039394219375050395,0.00562078771061489,-0.049721009159448007,-0.015506173209641832,0.013936051768439229,-0.043508427707738384,-0.045918970734951034,-0.016773904959654057,-0.0768225218409436,0.036425530709695793,-0.01883329460190182,-0.056627929173567848,-0.036351957763784873,-0.035033683358109309,0.022641071365737727,0.015021264990215612,-0.07514010905299881,0.00788780642876536,-0.012227121765623487,-0.026465784949252117,0.099400489755477786,0.031327605567117826,0.010831837324253676,-0.018715848838321957,-0.024108323110265274,-0.014566854690853727,0.0176257937106721,0.0014253649569122054,0.032513306667659642,0.0052602897708111055,0.061957706717485475,-0.042719907154460862,-0.012641725737137823,0.065040857844908373,-0.022497905674655087,0.043031310638233823,-0.0010059928018500111,-0.052080710397830618,0.019165161686634832,0.059855688416132181,-0.011850323089497223,-0.0682554326126757,-0.00067369166118422523,-0.033504736820932177,-0.026755124121201072,0.024957741493689824,-0.025681744088759718,-0.010238273421550082,0.0011076889643255484,-0.045826797475082295,-0.066037714692863222,0.046357777330878064,-0.030782120303668278,-0.045758757589205092,-0.023211957187147029,-0.043888980981669982,0.01173053290005488,-0.030414431350274034,-0.018422863166650927,-0.010251210249518515,-0.063164432904161141,0.060810607722092375,-0.020550716480303544,0.032505444583727269,0.06178801952993758,-0.011319755063117705,0.0054191737591778588,-0.024079700837232352,-0.06559734645233635,0.023201327200806185,0.0201960918034802,0.018256740354894423,-0.023395685474263662,-0.0084348458924639429,-0.028825464217766272,0.045599078910831266,0.033364883327165758,-0.050425163811781304,0.00050326530464744142,-0.0345692244929985,0.033184324544636441,-0.022862288217370474,0.024250656618716088,0.0722572880738501,-0.039601494139433507,-0.010049013946358558,0.03284029367279355,-0.01391858944990894,-0.051805761470609377,-0.015037829477421098,0.018588791684815725,-0.028434344783364436,0.057225410023074109,-0.024678510563310111,-0.042563414463147937,-0.00787571682218369,-0.078991777982821879,-0.050415220590324009,-0.10070382255543707,0.00785226142130771,-0.014116595319014142,-5.8661316593364785E-05,-0.019411796250590169,0.0938880509374824,-0.0011807968268962089,0.0064931355312640481,-0.062932774892958551,-0.012127444976654115,0.0085219302973601231,-0.029096962318026356,0.11777452882432227,0.043258149542790426,0.042091971481062605,-0.082964960591602036,0.0056473399000988873,0.0041659296541111017,0.027791147519863082,-0.021514396886506859,-0.025096594497514731,0.013977954034026669,-0.026507915767740593,0.039048270422066059,-0.059862935549886455,-0.019471169123986585,-0.074248152443399121,0.016813068264273586,-0.029005660104175154,-0.082931221975071578,0.0010266147746857855,0.0895880906528276,0.018328056569613737,-0.004686393992121049,0.011232065593323926,0.0019276882664991217,0.0808310841492394,-0.031592685374275856,-0.023592678461223839,-0.010100109471991704,0.084703803418144749,-0.049927769886242743,0.0076524064765592118,0.06633201517020007,0.025912548952533084,-0.0023998880261786918,-0.038575894370675948,0.0084555749563102675,0.0045613281101163968,-0.0083845570941667412,-0.021774737046398863,-0.054296122418215229,0.03393599740624427,-0.023261800370587522,-0.029486925038359514,-0.017692756772789035,-0.015201983496402562,-0.024308357985232173,-0.027724152348814583,-0.041142654620479273,0.036026027332225763,0.0093256289446027058,-0.024801492550959117,0.050823061763484105,0.033026924609108423,-0.042257235938293822,-0.01814325432591395,0.047275241014562576,0.0031667596516294612,0.0072825064412630411,0.009322108924357109,-0.029328343794658946,0.069508648950045937,0.01851699790601858,-0.010930558061049775,0.0315230093519941,-0.068864301807167225,0.016034109427023741,0.038226245115178366,-0.015358951004626765,0.025728614713336626,-0.029355475261414674,-0.011513938855152823,-0.0716024625506845,-0.098318859277979564,0.042841825667077837,-0.064974720123114074,-0.0362733658354152,-0.014504694656357562,0.017587390176673996,0.0357106174393312,-0.059414117318983224,0.04144026376501523,0.023062834893701829,-0.018127290624192334,-0.039990768115292848,-0.026408210820972569,0.083805489765098731,0.005238579300697481,-0.047930858087181845,0.0095954644672389157,-0.049310743450507476,0.00853214357158186,0.020052345477652146,-0.0043203805567136131,-0.016938851415759491,0.033506558172411632,-0.097234472765842767,-0.057537548023280739,-0.060660648731102489,-0.025518436457563732,-0.050758105844223078,0.024361167173243308,-0.032380500633075425,0.083964090285991472,0.0099175025629343726,-0.0554152582785279,0.0498001449859979,-0.0091087115879885973,-0.11619298728795093,-0.006511113653631679,-0.058815997548954529,0.035200863854574854,-0.096949800608462422,-0.0736161199568354,-0.0075174082441697371,-0.020490031371947034,0.024386477931410838,0.0046127327519166232,-0.01177566731380102,0.03522991656703877,0.13315445472535994,-0.0002849778283531053,-0.063470570493905282,-0.023355394646378529,0.014813823622786864,0.067316538644328891,0.011496013951032171,-0.027367147418686431,-0.073348988217685554,-0.018709637872055394,0.05956227418868059,0.017370647971399821,-0.057025803509066206,0.031792155705912782,0.014981367742234358,0.038738552522961128,-0.059799118984309077,-0.022333879755728314,-0.0036681480784888712,-0.01969380031391639,-0.070067523254746786,-0.044609153686706128,-0.082819798627599681,-0.071720851214005607,0.0067117024841664161,0.010587258016344459,-0.070748923376084669,-0.088440756051043845,0.031599267363771312,-0.012138676631092981,0.02249575344228489,0.011798590129827827,0.01768406016057995,-0.0305174903317757,-0.01856950166070126,0.046713004418796687,0.025623131276763963,-0.004633534029888183,0.073223230930358069,-0.040448047550523121,0.0017655270049493357,-0.004926088951879056,0.025590763448611054,-0.025594303786038348,-0.024446084606531176,-0.0062942035039666713,0.004830344268209965,-0.037754295793437684,-0.021125614973650102,-0.020877574387953745,-0.021250428069363884,-0.022128409503596257,-0.0024437624033176075,0.0023933248880822927,0.0089427937259529185,0.020500003070923402,0.013628448912873506,-0.045560881225476926,-0.02825041538325954,-0.004364990940025279,-0.062269112247231084,0.016204293842078818,-0.045278497276446859,0.021677264909145344,-0.0011629809395127192,-0.012842631853929112,-0.068398704355133538,0.026588135851703238,0.073673450488565009,0.017240715943796271,0.015755011566407986,0.00972527239090802,0.10991374141070633,-0.088153311998608153,-0.0585924509371004,-0.065374116114934,-0.0519510450410696,0.037144842290393686,-0.04001330322093969,0.078741551597906675,-0.00843694502361592,0.015277618070349707,-0.063050562753161177,-0.031961436524974705,-0.01164099240421791,-0.039962048359293095,-0.0065659078923749822,-0.012905007449297205,-0.0032763943692618344,0.10269684019054173,0.053107356448900696,0.0002703644180177769,0.0011057046847272865,-0.0907029506731925,-0.043095553593428822,-0.050356500552797445,-0.017004205126999034,0.036520497494660908,0.048542570710821548,-0.072643020388772572,-0.0066480070745416854,-0.037527824076123324,-0.01807279731826832,-0.0073460288672856705,0.023618319984358822,-0.077520000080857909,-0.069767531745122971,-0.023814599074255018,-0.0179314916050018,0.0012499381104864264,-0.077294000845578054,-0.0009219589937673648,-0.092039009934268487,-0.017307735217466549,0.0442198616050078,0.060112558671108374,-0.055035342114706266,0.020134351149424724,0.048930707565065283,-0.011331901745634237],"Width":5},{"Depth":20,"Height":5,"WeightGradients":[0,-2.2967041356839589E-05,-5.1615401411820124E-06,0,-9.4357218401819962E-07,0,-3.8349186699162547E-05,-1.5678032149810472E-06,-2.4140369688623765E-05,-2.6594887272993108E-05,0,-5.0170742117173637E-05,-6.4611097073193785E-05,-5.2511664746260183E-06,-3.0267882596222912E-06,-3.412849700541999E-05,0,-4.2231240186233312E-05,-2.681614070922676E-05,-9.5175566910619281E-06,0,-1.6849266770162788E-05,-2.0594151617282795E-05,-1.2740848646211019E-06,-2.9226461530837324E-06,0,-2.6809801043501035E-05,0,-2.0208558990947992E-05,0,-1.8843478798856194E-06,-5.1060937435166022E-05,0,-4.3037943409399647E-06,0,-2.3610821787384561E-06,0,-5.484239067414832E-05,-3.7302292386844638E-05,-1.1936785995943663E-05,-2.4595098557500746E-06,-9.5959188906855745E-06,-2.0158446727611418E-05,0,0,0,-3.375166248730664E-05,0,0,0,0,0,0,0,0,-3.4019579119938289E-06,0,-1.7914511212663257E-05,-1.71419908782429E-05,0,-2.9840115630135176E-05,-2.5872818363834081E-05,-4.6164741267798127E-05,-1.382473695178774E-05,-1.2702585201753455E-05,-5.5059640930621387E-06,-2.6316774580636576E-05,-1.4409279337562247E-05,0,0,-1.9517999505653908E-05,0,0,-1.5200882445482133E-05,-1.4521639823534813E-05,0,-4.6568780766852292E-06,-6.9795624958837951E-06,-1.1752451740053585E-05,-4.4516040477826388E-06,0,0,0,0,0,0,0,0,0,0,0,0,0,0,0,0,0,0,0,0,0,-4.2674757203407579E-05,-1.4869776846181388E-05,0,0,0,-4.4373717431796158E-05,0,-1.9213353822353642E-05,0,-7.9746747501889774E-06,-4.7838166071846113E-05,-2.8382445047452759E-05,0,-9.2083112842517444E-06,-1.8551296176826543E-05,0,-5.0212890750925182E-05,-1.432382325225651E-05,-1.2387565422893117E-05,-2.4595098557500746E-06,-1.3507544455401355E-05,-2.1661878969481873E-05,0,0,0,-3.375166248730664E-05,-3.5899691383668855E-08,-1.1090920270666688E-06,0,-1.1555538959467958E-06,-5.5153727679342627E-06,0,0,0,-3.4019579119938289E-06,0,-3.0275463879175155E-05,-2.6230266481657946E-05,-1.2296560840187606E-05,-2.4595098557500746E-06,-9.5959188906855745E-06,-2.0158446727611418E-05,0,0,0,-3.375166248730664E-05,0,0,0,0,0,0,0,0,-3.4019579119938289E-06,0,-1.7914511212663257E-05,-1.71419908782429E-05,0,-2.9840115630135176E-05,-2.5872818363834081E-05,-4.6164741267798127E-05,-1.382473695178774E-05,-1.2702585201753455E-05,-5.5059640930621387E-06,-2.6316774580636576E-05,-1.4409279337562247E-05,0,0,-1.9517999505653908E-05,0,0,-1.5200882445482133E-05,-1.4521639823534813E-05,0,-4.6568780766852292E-06,-6.9795624958837951E-06,-1.1752451740053585E-05,-4.4516040477826388E-06,0,0,0,0,0,0,0,0,0,0,0,0,0,0,0,0,0,0,0,0,0,-5.8074265912394E-06,-1.7678858340381995E-05,0,0,0,-2.7128510732134395E-05,-5.8812667295404445E-07,-9.2406564329766991E-06,0,-7.0015486362977927E-06,-1.2719185310761397E-05,-5.8979147299987461E-06,0,-3.0049492697227649E-06,-7.6395173033439928E-06,0,-4.880948443670102E-05,-2.32726406061784E-05,-1.5937531313589364E-05,-2.4595098557500746E-06,-9.5959188906855745E-06,-2.0158446727611418E-05,0,0,0,-3.375166248730664E-05,-5.2943588264221879E-07,0,0,-6.3802351856324646E-06,0,0,0,0,-3.4019579119938289E-06,0,-2.5189044809531267E-05,-2.2743721806121233E-05,-4.129508661013821E-06,-2.4595098557500746E-06,-9.5959188906855745E-06,-2.0158446727611418E-05,0,0,0,-3.375166248730664E-05,0,0,0,0,0,0,0,0,-3.4019579119938289E-06,0,-1.7914511212663257E-05,-1.71419908782429E-05,0,-2.9840115630135176E-05,-2.5872818363834081E-05,-4.6164741267798127E-05,-1.382473695178774E-05,-1.2702585201753455E-05,-5.5059640930621387E-06,-2.6316774580636576E-05,-1.4409279337562247E-05,0,0,-1.9517999505653908E-05,0,0,-1.5200882445482133E-05,-1.4521639823534813E-05,0,-4.6568780766852292E-06,-6.9795624958837951E-06,-1.1752451740053585E-05,-4.4516040477826388E-06,0,0,0,0,0,0,0,0,0,0,0,0,0,0,0,0,0,0,0,0,-2.5041542083330294E-05,0,-4.1128765260963922E-05,0,-5.343470097578997E-05,0,-1.6450246739358193E-05,-5.6370068944079491E-06,-9.3896520047988664E-06,-5.5529806303952633E-07,-5.0597785850462045E-07,-3.2208255651530978E-05,-2.0037369911753604E-05,-3.5281296552658321E-05,0,-5.31659418831246E-07,0,-2.5935925144708277E-06,-7.1559941697586009E-05,-3.0808119782795052E-05,-2.5041542083330294E-05,0,-4.1128765260963922E-05,0,-5.343470097578997E-05,0,-1.6450246739358193E-05,-5.6370068944079491E-06,-9.3896520047988664E-06,-5.5529806303952633E-07,0,-3.2208255651530978E-05,-2.0037369911753604E-05,-3.5281296552658321E-05,0,-5.31659418831246E-07,0,0,-6.5429291969650523E-05,-2.7368058828281066E-05,-2.5041542083330294E-05,0,-4.1128765260963922E-05,0,-5.343470097578997E-05,0,-1.6450246739358193E-05,-5.6370068944079491E-06,-9.3896520047988664E-06,-5.5529806303952633E-07,0,-3.2208255651530978E-05,-2.0037369911753604E-05,-3.5281296552658321E-05,0,-5.31659418831246E-07,0,0,-6.5429291969650523E-05,-2.7368058828281066E-05,-3.7980191418040434E-05,0,-5.0991761780622666E-05,-2.0695228068366429E-05,-5.2620163206686238E-05,-8.6872272602066775E-06,-9.4599448135097983E-06,-4.4098068357238947E-05,0,-4.1061304199830521E-07,-1.1310331215209461E-05,-1.3364767091729236E-05,0,-4.2952760729025724E-05,0,0,0,0,-5.4759696712597366E-05,-2.415885193013646E-05,0,0,0,0,0,0,0,0,0,0,0,0,0,0,0,0,0,0,0,0,0,0,0,0,0,0,0,0,0,0,0,0,0,0,0,0,0,0,0,0,0,0,0,0,0,0,0,0,0,0,0,0,0,0,0,0,0,0,0,0,0,0,0,0,0,0,0,0,0,0,0,0,0,0,0,0,0,0,0,0,0,0,0,0,0,0,0,0,0,0,0,0,0,0,0,0,0,0,0,0,0,0,0,0,0,0,0,0,0,0,0,0,0,0,0,0,0,0,0,0],"Weights":[-0.021624239024851926,0.1307194060461945,0.015488154342260262,0.074388200441055416,0.018448533024588362,-0.12332169877298534,0.0035130696359738662,-0.033578020468244693,0.08354468253084095,-0.053854359346342612,0.074057489314531516,-0.04158243378022751,0.015546474892883445,-0.089684121268023859,0.012522715501286247,0.054551045485197333,-0.0080617085623427565,0.011423647725048648,